{"learner":{"attributes":{"best_iteration":"60","best_score":"1.247750804395443"},"feature_names":["Inflation Rate (%)","Interest Rate (%)","Exchange Rate (USD/INR)","Fiscal Deficit (% of GDP)","Exports (Billion USD)","Imports (Billion USD)","FDI (Billion USD)","Money Supply (M3) Growth (%)","Bank Credit Growth (%)","Unemployment Rate (%)","Private Consumption (% of GDP)","Fixed Capital Formation (% of GDP)","Trade Balance (Billion USD)","^NSEI Close Price","^BSESN Close Price","CCI","Manufacturing PMI","Government expenditure, percent of GDP (% of GDP)","Agricultural Export Volume","Crop Production Index","Banking Credit Growth","Foreign Exchange Reserves","Crude Oil Price","GDP (Billions of US $)","Per Capita (US $)","Agriculture, Forestry & Fishing","Manufacturing","Hospitality","Business Services","GDP Growth (%)_lag1","GDP Growth (%)_lag2","GDP Growth (%)_ma3","Inflation Rate (%)_lag1","Inflation Rate (%)_lag2","Inflation Rate (%)_ma3","Interest Rate (%)_lag1","Interest Rate (%)_lag2","Interest Rate (%)_ma3","Exchange Rate (USD/INR)_lag1","Exchange Rate (USD/INR)_lag2","Exchange Rate (USD/INR)_ma3","Fiscal Deficit (% of GDP)_lag1","Fiscal Deficit (% of GDP)_lag2","Fiscal Deficit (% of GDP)_ma3","Unemployment Rate (%)_lag1","Unemployment Rate (%)_lag2","Unemployment Rate (%)_ma3","Money Supply (M3) Growth (%)_lag1","Money Supply (M3) Growth (%)_lag2","Money Supply (M3) Growth (%)_ma3","Bank Credit Growth (%)_lag1","Bank Credit Growth (%)_lag2","Bank Credit Growth (%)_ma3","Exports (Billion USD)_lag1","Exports (Billion USD)_lag2","Exports (Billion USD)_ma3","Imports (Billion USD)_lag1","Imports (Billion USD)_lag2","Imports (Billion USD)_ma3","FDI (Billion USD)_lag1","FDI (Billion USD)_lag2","FDI (Billion USD)_ma3","GDP_Trend_RollMean5","GDP_Change_YoY","Reform_Policy_Boost"],"feature_types":["float","float","float","float","float","float","float","float","float","float","float","float","float","float","float","float","float","float","float","float","float","float","float","float","float","float","float","float","float","float","float","float","float","float","float","float","float","float","float","float","float","float","float","float","float","float","float","float","float","float","float","float","float","float","float","float","float","float","float","float","float","float","float","float","int"],"gradient_booster":{"model":{"gbtree_model_param":{"num_parallel_tree":"1","num_trees":"81"},"iteration_indptr":[0,1,2,3,4,5,6,7,8,9,10,11,12,13,14,15,16,17,18,19,20,21,22,23,24,25,26,27,28,29,30,31,32,33,34,35,36,37,38,39,40,41,42,43,44,45,46,47,48,49,50,51,52,53,54,55,56,57,58,59,60,61,62,63,64,65,66,67,68,69,70,71,72,73,74,75,76,77,78,79,80,81],"tree_info":[0,0,0,0,0,0,0,0,0,0,0,0,0,0,0,0,0,0,0,0,0,0,0,0,0,0,0,0,0,0,0,0,0,0,0,0,0,0,0,0,0,0,0,0,0,0,0,0,0,0,0,0,0,0,0,0,0,0,0,0,0,0,0,0,0,0,0,0,0,0,0,0,0,0,0,0,0,0,0,0,0],"trees":[{"base_weights":[-0E0,-2.0677607E0,2.0677607E0,2.6125712E-2,-2.8445373E0,-8.45678E-4,2.3778095E0,-3.1925712E0,-0E0,6.953838E-2,1.3595018E-2,-0E0,-8.506229E-2],"categories":[],"categories_nodes":[],"categories_segments":[],"categories_sizes":[],"default_left":[0,0,0,0,0,0,0,0,0,0,0,0,0],"id":0,"left_children":[1,3,5,-1,7,-1,9,11,-1,-1,-1,-1,-1],"loss_changes":[1.6247409E2,5.3685646E1,1.4885155E1,0E0,1.323288E1,0E0,6.236885E0,7.805176E0,0E0,0E0,0E0,0E0,0E0],"parents":[2147483647,0,0,1,1,2,2,4,4,6,6,7,7],"right_children":[2,4,6,-1,8,-1,10,12,-1,-1,-1,-1,-1],"split_conditions":[4.94009E-4,3.8409913E0,1.46E1,2.6125712E-2,8.060733E0,-8.45678E-4,7.8603816E0,1.74798E1,-0E0,6.953838E-2,1.3595018E-2,-0E0,-8.506229E-2],"split_indices":[63,30,26,0,30,0,30,17,0,0,0,0,0],"split_type":[0,0,0,0,0,0,0,0,0,0,0,0,0],"sum_hessian":[3.4E1,1.7E1,1.7E1,3E0,1.4E1,2E0,1.5E1,1.2E1,2E0,1.1E1,4E0,1E0,1.1E1],"tree_param":{"num_deleted":"0","num_feature":"65","num_nodes":"13","size_leaf_vector":"1"}},{"base_weights":[-0E0,-2.0226393E0,2.0247285E0,2.5733823E-2,-2.786057E0,-8.351071E-4,2.3296154E0,-3.1257365E0,-0E0,2.722695E0,1.3368435E-2,-0E0,-8.326289E-2,7.3745154E-2,1.2169801E-2],"categories":[],"categories_nodes":[],"categories_segments":[],"categories_sizes":[],"default_left":[0,0,0,0,0,0,0,0,0,0,0,0,0,0,0],"id":1,"left_children":[1,3,5,-1,7,-1,9,11,-1,13,-1,-1,-1,-1,-1],"loss_changes":[1.556213E2,5.176133E1,1.4374298E1,0E0,1.2589394E1,0E0,5.82473E0,7.417145E0,0E0,2.929001E-1,0E0,0E0,0E0,0E0,0E0],"parents":[2147483647,0,0,1,1,2,2,4,4,6,6,7,7,9,9],"right_children":[2,4,6,-1,8,-1,10,12,-1,14,-1,-1,-1,-1,-1],"split_conditions":[4.94009E-4,3.8409913E0,1.46E1,2.5733823E-2,8.060733E0,-8.351071E-4,7.8603816E0,1.74798E1,-0E0,1.198939E1,1.3368435E-2,-0E0,-8.326289E-2,7.3745154E-2,1.2169801E-2],"split_indices":[63,30,26,0,30,0,30,17,0,0,0,0,0,0,0],"split_type":[0,0,0,0,0,0,0,0,0,0,0,0,0,0,0],"sum_hessian":[3.4E1,1.7E1,1.7E1,3E0,1.4E1,2E0,1.5E1,1.2E1,2E0,1.1E1,4E0,1E0,1.1E1,9E0,2E0],"tree_param":{"num_deleted":"0","num_feature":"65","num_nodes":"15","size_leaf_vector":"1"}},{"base_weights":[-0E0,-1.9784976E0,1.9857891E0,2.5347818E-2,-2.7288136E0,-8.2466815E-4,2.2859964E0,-3.0603156E0,-0E0,2.6697683E0,1.3145627E-2,-0E0,-8.1501566E-2,7.223673E-2,1.2017678E-2],"categories":[],"categories_nodes":[],"categories_segments":[],"categories_sizes":[],"default_left":[0,0,0,0,0,0,0,0,0,0,0,0,0,0,0],"id":2,"left_children":[1,3,5,-1,7,-1,9,11,-1,13,-1,-1,-1,-1,-1],"loss_changes":[1.492984E2,4.9908264E1,1.39188E1,0E0,1.197467E1,0E0,5.480316E0,7.046646E0,0E0,1.0404205E-1,0E0,0E0,0E0,0E0,0E0],"parents":[2147483647,0,0,1,1,2,2,4,4,6,6,7,7,9,9],"right_children":[2,4,6,-1,8,-1,10,12,-1,14,-1,-1,-1,-1,-1],"split_conditions":[4.94009E-4,3.8409913E0,1.46E1,2.5347818E-2,8.060733E0,-8.2466815E-4,7.8603816E0,1.74798E1,-0E0,1.198939E1,1.3145627E-2,-0E0,-8.1501566E-2,7.223673E-2,1.2017678E-2],"split_indices":[63,30,26,0,30,0,30,17,0,0,0,0,0,0,0],"split_type":[0,0,0,0,0,0,0,0,0,0,0,0,0,0,0],"sum_hessian":[3.4E1,1.7E1,1.7E1,3E0,1.4E1,2E0,1.5E1,1.2E1,2E0,1.1E1,4E0,1E0,1.1E1,9E0,2E0],"tree_param":{"num_deleted":"0","num_feature":"65","num_nodes":"15","size_leaf_vector":"1"}},{"base_weights":[-0E0,-1.9353148E0,1.947626E0,2.4967602E-2,-2.6727812E0,-8.1435964E-4,2.2432466E0,-2.9962788E0,-0E0,2.6179094E0,1.2926534E-2,-0E0,-7.9777494E-2,7.087123E-2,1.1559281E-2],"categories":[],"categories_nodes":[],"categories_segments":[],"categories_sizes":[],"default_left":[0,0,0,0,0,0,0,0,0,0,0,0,0,0,0],"id":3,"left_children":[1,3,5,-1,7,-1,9,11,-1,13,-1,-1,-1,-1,-1],"loss_changes":[1.432351E2,4.812378E1,1.3479187E1,0E0,1.1387451E1,0E0,5.1523285E0,6.692917E0,0E0,1.6035461E-1,0E0,0E0,0E0,0E0,0E0],"parents":[2147483647,0,0,1,1,2,2,4,4,6,6,7,7,9,9],"right_children":[2,4,6,-1,8,-1,10,12,-1,14,-1,-1,-1,-1,-1],"split_conditions":[4.94009E-4,3.8409913E0,1.46E1,2.4967602E-2,8.060733E0,-8.1435964E-4,7.8603816E0,1.74798E1,-0E0,1.0882353E1,1.2926534E-2,-0E0,-7.9777494E-2,7.087123E-2,1.1559281E-2],"split_indices":[63,30,26,0,30,0,30,17,0,32,0,0,0,0,0],"split_type":[0,0,0,0,0,0,0,0,0,0,0,0,0,0,0],"sum_hessian":[3.4E1,1.7E1,1.7E1,3E0,1.4E1,2E0,1.5E1,1.2E1,2E0,1.1E1,4E0,1E0,1.1E1,9E0,2E0],"tree_param":{"num_deleted":"0","num_feature":"65","num_nodes":"15","size_leaf_vector":"1"}},{"base_weights":[-0E0,-1.8930701E0,1.910203E0,2.4593087E-2,-2.6179342E0,-8.0418E-4,2.201325E0,-2.9390135E0,-0E0,2.5670664E0,1.2711092E-2,-0E0,-7.823574E-2,6.944432E-2,1.1352266E-2],"categories":[],"categories_nodes":[],"categories_segments":[],"categories_sizes":[],"default_left":[0,0,0,0,0,0,0,0,0,0,0,0,0,0,0],"id":4,"left_children":[1,3,5,-1,7,-1,9,11,-1,13,-1,-1,-1,-1,-1],"loss_changes":[1.374192E2,4.6405273E1,1.3054642E1,0E0,1.1271919E1,0E0,4.839737E0,6.3840637E0,0E0,3.3241272E-2,0E0,0E0,0E0,0E0,0E0],"parents":[2147483647,0,0,1,1,2,2,4,4,6,6,7,7,9,9],"right_children":[2,4,6,-1,8,-1,10,12,-1,14,-1,-1,-1,-1,-1],"split_conditions":[4.94009E-4,3.8409913E0,1.46E1,2.4593087E-2,2.74E11,-8.0418E-4,7.8603816E0,1.74798E1,-0E0,1.198939E1,1.2711092E-2,-0E0,-7.823574E-2,6.944432E-2,1.1352266E-2],"split_indices":[63,30,26,0,4,0,30,17,0,0,0,0,0,0,0],"split_type":[0,0,0,0,0,0,0,0,0,0,0,0,0,0,0],"sum_hessian":[3.4E1,1.7E1,1.7E1,3E0,1.4E1,2E0,1.5E1,1.2E1,2E0,1.1E1,4E0,1E0,1.1E1,9E0,2E0],"tree_param":{"num_deleted":"0","num_feature":"65","num_nodes":"15","size_leaf_vector":"1"}},{"base_weights":[-0E0,-1.8516588E0,1.8735219E0,2.422419E-2,-2.5641472E0,-7.941277E-4,2.160234E0,-2.8777137E0,-0E0,7.481351E-2,1.0712415E0,-0E0,-7.658536E-2,-0E0,2.8386151E-2],"categories":[],"categories_nodes":[],"categories_segments":[],"categories_sizes":[],"default_left":[0,0,0,0,0,0,0,0,0,0,0,0,0,0,0],"id":5,"left_children":[1,3,5,-1,7,-1,9,11,-1,-1,13,-1,-1,-1,-1],"loss_changes":[1.3183577E2,4.474794E1,1.2644814E1,0E0,1.0739693E1,0E0,4.933136E0,6.0612793E0,0E0,0E0,2.6923466E-1,0E0,0E0,0E0,0E0],"parents":[2147483647,0,0,1,1,2,2,4,4,6,6,7,7,10,10],"right_children":[2,4,6,-1,8,-1,10,12,-1,-1,14,-1,-1,-1,-1],"split_conditions":[4.94009E-4,3.8409913E0,1.46E1,2.422419E-2,8.060733E0,-7.941277E-4,5.835014E0,1.74798E1,-0E0,7.481351E-2,3.88E0,-0E0,-7.658536E-2,-0E0,2.8386151E-2],"split_indices":[63,30,26,0,30,0,62,17,0,0,3,0,0,0,0],"split_type":[0,0,0,0,0,0,0,0,0,0,0,0,0,0,0],"sum_hessian":[3.4E1,1.7E1,1.7E1,3E0,1.4E1,2E0,1.5E1,1.2E1,2E0,6E0,9E0,1E0,1.1E1,1E0,8E0],"tree_param":{"num_deleted":"0","num_feature":"65","num_nodes":"15","size_leaf_vector":"1"}},{"base_weights":[-0E0,-1.8111448E0,1.8380282E0,2.3860825E-2,-2.5114949E0,-7.842012E-4,2.120471E0,-2.8228385E0,-0E0,7.341075E-2,1.0505971E0,-0E0,-7.5107954E-2,-0E0,2.781843E-2],"categories":[],"categories_nodes":[],"categories_segments":[],"categories_sizes":[],"default_left":[0,0,0,0,0,0,0,0,0,0,0,0,0,0,0],"id":6,"left_children":[1,3,5,-1,7,-1,9,11,-1,-1,13,-1,-1,-1,-1],"loss_changes":[1.2651327E2,4.315174E1,1.2254089E1,0E0,1.0636162E1,0E0,4.68351E0,5.77919E0,0E0,0E0,2.4054241E-1,0E0,0E0,0E0,0E0],"parents":[2147483647,0,0,1,1,2,2,4,4,6,6,7,7,10,10],"right_children":[2,4,6,-1,8,-1,10,12,-1,-1,14,-1,-1,-1,-1],"split_conditions":[4.94009E-4,3.8409913E0,1.46E1,2.3860825E-2,2.74E11,-7.842012E-4,5.835014E0,1.74798E1,-0E0,7.341075E-2,3.88E0,-0E0,-7.5107954E-2,-0E0,2.781843E-2],"split_indices":[63,30,26,0,4,0,62,17,0,0,3,0,0,0,0],"split_type":[0,0,0,0,0,0,0,0,0,0,0,0,0,0,0],"sum_hessian":[3.4E1,1.7E1,1.7E1,3E0,1.4E1,2E0,1.5E1,1.2E1,2E0,6E0,9E0,1E0,1.1E1,1E0,8E0],"tree_param":{"num_deleted":"0","num_feature":"65","num_nodes":"15","size_leaf_vector":"1"}},{"base_weights":[-0E0,-1.7714287E0,1.8032154E0,2.3502914E-2,-2.4598582E0,-7.7439856E-4,2.0814703E0,-2.763891E0,-0E0,2.4342933E0,1.1413268E-2,-0E0,-7.35209E-2,6.593784E-2,1.02072535E-2],"categories":[],"categories_nodes":[],"categories_segments":[],"categories_sizes":[],"default_left":[0,0,0,0,0,0,0,0,0,0,0,0,0,0,0],"id":7,"left_children":[1,3,5,-1,7,-1,9,11,-1,13,-1,-1,-1,-1,-1],"loss_changes":[1.2140136E2,4.1612293E1,1.187653E1,0E0,1.0132881E1,0E0,4.632889E0,5.4833984E0,0E0,1.5288544E-1,0E0,0E0,0E0,0E0,0E0],"parents":[2147483647,0,0,1,1,2,2,4,4,6,6,7,7,9,9],"right_children":[2,4,6,-1,8,-1,10,12,-1,14,-1,-1,-1,-1,-1],"split_conditions":[4.94009E-4,3.8409913E0,1.46E1,2.3502914E-2,8.060733E0,-7.7439856E-4,7.8603816E0,1.74798E1,-0E0,1.0882353E1,1.1413268E-2,-0E0,-7.35209E-2,6.593784E-2,1.02072535E-2],"split_indices":[63,30,26,0,30,0,30,17,0,32,0,0,0,0,0],"split_type":[0,0,0,0,0,0,0,0,0,0,0,0,0,0,0],"sum_hessian":[3.4E1,1.7E1,1.7E1,3E0,1.4E1,2E0,1.5E1,1.2E1,2E0,1.1E1,4E0,1E0,1.1E1,9E0,2E0],"tree_param":{"num_deleted":"0","num_feature":"65","num_nodes":"15","size_leaf_vector":"1"}},{"base_weights":[-0E0,-1.732575E0,1.7685859E0,2.315037E-2,-2.4093125E0,-7.647187E-4,2.0426757E0,-2.7113104E0,-0E0,7.096835E-2,1.0014195E0,-0E0,-7.2105266E-2,-0E0,2.6494578E-2],"categories":[],"categories_nodes":[],"categories_segments":[],"categories_sizes":[],"default_left":[0,0,0,0,0,0,0,0,0,0,0,0,0,0,0],"id":8,"left_children":[1,3,5,-1,7,-1,9,11,-1,-1,13,-1,-1,-1,-1],"loss_changes":[1.1646454E2,4.0129585E1,1.1506634E1,0E0,1.0040268E1,0E0,4.565628E0,5.225876E0,0E0,0E0,2.001524E-1,0E0,0E0,0E0,0E0],"parents":[2147483647,0,0,1,1,2,2,4,4,6,6,7,7,10,10],"right_children":[2,4,6,-1,8,-1,10,12,-1,-1,14,-1,-1,-1,-1],"split_conditions":[4.94009E-4,3.8409913E0,1.46E1,2.315037E-2,2.74E11,-7.647187E-4,5.835014E0,1.74798E1,-0E0,7.096835E-2,3.88E0,-0E0,-7.2105266E-2,-0E0,2.6494578E-2],"split_indices":[63,30,26,0,4,0,62,17,0,0,3,0,0,0,0],"split_type":[0,0,0,0,0,0,0,0,0,0,0,0,0,0,0],"sum_hessian":[3.4E1,1.7E1,1.7E1,3E0,1.4E1,2E0,1.5E1,1.2E1,2E0,6E0,9E0,1E0,1.1E1,1E0,8E0],"tree_param":{"num_deleted":"0","num_feature":"65","num_nodes":"15","size_leaf_vector":"1"}},{"base_weights":[-0E0,-1.6944852E0,1.7350998E0,2.2803117E-2,-2.35974E0,-7.5515965E-4,2.00516E0,-2.6546562E0,-0E0,2.3475497E0,1.0706558E-2,-0E0,-7.061696E-2,1.9632058E-2,6.8906814E-2],"categories":[],"categories_nodes":[],"categories_segments":[],"categories_sizes":[],"default_left":[0,0,0,0,0,0,0,0,0,0,0,0,0,0,0],"id":9,"left_children":[1,3,5,-1,7,-1,9,11,-1,13,-1,-1,-1,-1,-1],"loss_changes":[1.11755165E2,3.8699516E1,1.1154129E1,0E0,9.566818E0,0E0,4.391983E0,5.063713E0,0E0,4.304886E-1,0E0,0E0,0E0,0E0,0E0],"parents":[2147483647,0,0,1,1,2,2,4,4,6,6,7,7,9,9],"right_children":[2,4,6,-1,8,-1,10,12,-1,14,-1,-1,-1,-1,-1],"split_conditions":[4.94009E-4,3.8409913E0,1.46E1,2.2803117E-2,2.74E11,-7.5515965E-4,7.8603816E0,1.924E7,-0E0,1.58008E1,1.0706558E-2,-0E0,-7.061696E-2,1.9632058E-2,6.8906814E-2],"split_indices":[63,30,26,0,4,0,30,6,0,24,0,0,0,0,0],"split_type":[0,0,0,0,0,0,0,0,0,0,0,0,0,0,0],"sum_hessian":[3.4E1,1.7E1,1.7E1,3E0,1.4E1,2E0,1.5E1,1.2E1,2E0,1.1E1,4E0,1E0,1.1E1,4E0,7E0],"tree_param":{"num_deleted":"0","num_feature":"65","num_nodes":"15","size_leaf_vector":"1"}},{"base_weights":[-0E0,-1.6572022E0,1.7034054E0,2.2461068E-2,-2.3111908E0,-7.4572035E-4,1.9696481E0,-2.5991714E0,-0E0,2.7411027E0,9.595633E-1,-0E0,-6.922194E-2,7.330565E-2,3.3603352E-3,-0E0,2.53703E-2],"categories":[],"categories_nodes":[],"categories_segments":[],"categories_sizes":[],"default_left":[0,0,0,0,0,0,0,0,0,0,0,0,0,0,0,0,0],"id":10,"left_children":[1,3,5,-1,7,-1,9,11,-1,13,15,-1,-1,-1,-1,-1,-1],"loss_changes":[1.0731027E2,3.732159E1,1.0825073E1,0E0,9.114037E0,0E0,4.2858047E0,5.0871887E0,0E0,1.3068771E-1,1.7005444E-1,0E0,0E0,0E0,0E0,0E0,0E0],"parents":[2147483647,0,0,1,1,2,2,4,4,6,6,7,7,9,9,10,10],"right_children":[2,4,6,-1,8,-1,10,12,-1,14,16,-1,-1,-1,-1,-1,-1],"split_conditions":[4.94009E-4,3.8409913E0,1.46E1,2.2461068E-2,2.74E11,-7.4572035E-4,5.835014E0,1.74798E1,-0E0,7.7747073E0,3.88E0,-0E0,-6.922194E-2,7.330565E-2,3.3603352E-3,-0E0,2.53703E-2],"split_indices":[63,30,26,0,4,0,62,17,0,1,3,0,0,0,0,0,0],"split_type":[0,0,0,0,0,0,0,0,0,0,0,0,0,0,0,0,0],"sum_hessian":[3.4E1,1.7E1,1.7E1,3E0,1.4E1,2E0,1.5E1,1.2E1,2E0,6E0,9E0,1E0,1.1E1,5E0,1E0,1E0,8E0],"tree_param":{"num_deleted":"0","num_feature":"65","num_nodes":"17","size_leaf_vector":"1"}},{"base_weights":[1.5538186E-5,-1.6206728E0,1.6733339E0,2.2124153E-2,-2.2636008E0,-7.363989E-4,1.935951E0,-2.549692E0,-0E0,2.6948667E0,9.4111216E-1,-7.070034E-2,-4.7470112E-3,7.199662E-2,3.332333E-3,-0E0,2.4862893E-2],"categories":[],"categories_nodes":[],"categories_segments":[],"categories_sizes":[],"default_left":[0,0,0,0,0,0,0,0,0,0,0,0,0,0,0,0,0],"id":11,"left_children":[1,3,5,-1,7,-1,9,11,-1,13,15,-1,-1,-1,-1,-1,-1],"loss_changes":[1.0310591E2,3.599302E1,1.0516998E1,0E0,9.030777E0,0E0,4.1266594E0,5.1031494E0,0E0,1.02005005E-2,1.4800262E-1,0E0,0E0,0E0,0E0,0E0,0E0],"parents":[2147483647,0,0,1,1,2,2,4,4,6,6,7,7,9,9,10,10],"right_children":[2,4,6,-1,8,-1,10,12,-1,14,16,-1,-1,-1,-1,-1,-1],"split_conditions":[4.94009E-4,3.8409913E0,1.46E1,2.2124153E-2,8.060733E0,-7.363989E-4,5.835014E0,4.5307007E1,-0E0,7.7747073E0,3.88E0,-7.070034E-2,-4.7470112E-3,7.199662E-2,3.332333E-3,-0E0,2.4862893E-2],"split_indices":[63,30,26,0,30,0,62,2,0,1,3,0,0,0,0,0,0],"split_type":[0,0,0,0,0,0,0,0,0,0,0,0,0,0,0,0,0],"sum_hessian":[3.4E1,1.7E1,1.7E1,3E0,1.4E1,2E0,1.5E1,1.2E1,2E0,6E0,9E0,1E1,2E0,5E0,1E0,1E0,8E0],"tree_param":{"num_deleted":"0","num_feature":"65","num_nodes":"17","size_leaf_vector":"1"}},{"base_weights":[2.4982947E-3,-1.5864557E0,1.6438209E0,2.1792289E-2,-2.2188199E0,-7.2719384E-4,1.9028794E0,-2.4985135E0,-0E0,6.623631E-2,9.2303E-1,-0E0,-6.664788E-2,-0E0,2.4365636E-2],"categories":[],"categories_nodes":[],"categories_segments":[],"categories_sizes":[],"default_left":[0,0,0,0,0,0,0,0,0,0,0,0,0,0,0],"id":12,"left_children":[1,3,5,-1,7,-1,9,11,-1,-1,13,-1,-1,-1,-1],"loss_changes":[9.9160576E1,3.4749813E1,1.0218731E1,0E0,8.625397E0,0E0,3.972458E0,4.9963913E0,0E0,0E0,1.2711811E-1,0E0,0E0,0E0,0E0],"parents":[2147483647,0,0,1,1,2,2,4,4,6,6,7,7,10,10],"right_children":[2,4,6,-1,8,-1,10,12,-1,-1,14,-1,-1,-1,-1],"split_conditions":[4.94009E-4,3.8409913E0,1.46E1,2.1792289E-2,8.060733E0,-7.2719384E-4,5.835014E0,1.74798E1,-0E0,6.623631E-2,3.88E0,-0E0,-6.664788E-2,-0E0,2.4365636E-2],"split_indices":[63,30,26,0,30,0,62,17,0,0,3,0,0,0,0],"split_type":[0,0,0,0,0,0,0,0,0,0,0,0,0,0,0],"sum_hessian":[3.4E1,1.7E1,1.7E1,3E0,1.4E1,2E0,1.5E1,1.2E1,2E0,6E0,9E0,1E0,1.1E1,1E0,8E0],"tree_param":{"num_deleted":"0","num_feature":"65","num_nodes":"15","size_leaf_vector":"1"}},{"base_weights":[4.6333335E-3,-1.551311E0,1.6127216E0,2.1465406E-2,-2.1729994E0,-7.18104E-4,1.8680357E0,-3.817577E-3,-2.5388057E0,2.1886144E0,9.602587E-3,-0E0,-6.808789E-2,5.9403654E-2,8.214864E-3],"categories":[],"categories_nodes":[],"categories_segments":[],"categories_sizes":[],"default_left":[0,0,0,0,0,0,0,0,0,0,0,0,0,0,0],"id":13,"left_children":[1,3,5,-1,7,-1,9,-1,11,13,-1,-1,-1,-1,-1],"loss_changes":[9.5140526E1,3.351218E1,9.909229E0,0E0,8.357727E0,0E0,3.8331566E0,0E0,5.218483E0,2.682495E-1,0E0,0E0,0E0,0E0,0E0],"parents":[2147483647,0,0,1,1,2,2,4,4,6,6,8,8,9,9],"right_children":[2,4,6,-1,8,-1,10,-1,12,14,-1,-1,-1,-1,-1],"split_conditions":[4.94009E-4,3.8409913E0,1.46E1,2.1465406E-2,1.00649864E2,-7.18104E-4,7.8603816E0,-3.817577E-3,1.74798E1,1.198939E1,9.602587E-3,-0E0,-6.808789E-2,5.9403654E-2,8.214864E-3],"split_indices":[63,30,26,0,15,0,30,0,17,0,0,0,0,0,0],"split_type":[0,0,0,0,0,0,0,0,0,0,0,0,0,0,0],"sum_hessian":[3.4E1,1.7E1,1.7E1,3E0,1.4E1,2E0,1.5E1,3E0,1.1E1,1.1E1,4E0,1E0,1E1,9E0,2E0],"tree_param":{"num_deleted":"0","num_feature":"65","num_nodes":"15","size_leaf_vector":"1"}},{"base_weights":[5.74165E-3,-1.5182618E0,1.5817722E0,2.1143427E-2,-2.1297286E0,-7.0912763E-4,1.8333608E0,-2.4018312E0,-0E0,2.5614474E0,8.795958E-1,-6.670112E-2,-3.8068553E-3,6.84674E-2,2.672573E-3,-0E0,2.31952E-2],"categories":[],"categories_nodes":[],"categories_segments":[],"categories_sizes":[],"default_left":[0,0,0,0,0,0,0,0,0,0,0,0,0,0,0,0,0],"id":14,"left_children":[1,3,5,-1,7,-1,9,11,-1,13,15,-1,-1,-1,-1,-1,-1],"loss_changes":[9.133412E1,3.235101E1,9.605751E0,0E0,8.191193E0,0E0,3.8580856E0,4.751213E0,0E0,4.9365997E-2,9.770012E-2,0E0,0E0,0E0,0E0,0E0,0E0],"parents":[2147483647,0,0,1,1,2,2,4,4,6,6,7,7,9,9,10,10],"right_children":[2,4,6,-1,8,-1,10,12,-1,14,16,-1,-1,-1,-1,-1,-1],"split_conditions":[4.94009E-4,3.8409913E0,1.46E1,2.1143427E-2,8.060733E0,-7.0912763E-4,5.835014E0,4.5307007E1,-0E0,7.7747073E0,3.88E0,-6.670112E-2,-3.8068553E-3,6.84674E-2,2.672573E-3,-0E0,2.31952E-2],"split_indices":[63,30,26,0,30,0,62,2,0,1,3,0,0,0,0,0,0],"split_type":[0,0,0,0,0,0,0,0,0,0,0,0,0,0,0,0,0],"sum_hessian":[3.4E1,1.7E1,1.7E1,3E0,1.4E1,2E0,1.5E1,1.2E1,2E0,6E0,9E0,1E1,2E0,5E0,1E0,1E0,8E0],"tree_param":{"num_deleted":"0","num_feature":"65","num_nodes":"17","size_leaf_vector":"1"}},{"base_weights":[8.020604E-3,-1.4860935E0,1.553922E0,2.0826275E-2,-2.0875645E0,-7.002636E-4,1.8021507E0,-2.3536437E0,-0E0,6.295803E-2,8.627265E-1,-0E0,-6.2875815E-2,-0E0,2.2731295E-2],"categories":[],"categories_nodes":[],"categories_segments":[],"categories_sizes":[],"default_left":[0,0,0,0,0,0,0,0,0,0,0,0,0,0,0],"id":15,"left_children":[1,3,5,-1,7,-1,9,11,-1,-1,13,-1,-1,-1,-1],"loss_changes":[8.7837494E1,3.1235676E1,9.336037E0,0E0,7.8281174E0,0E0,3.7111015E0,4.6751175E0,0E0,0E0,8.012104E-2,0E0,0E0,0E0,0E0],"parents":[2147483647,0,0,1,1,2,2,4,4,6,6,7,7,10,10],"right_children":[2,4,6,-1,8,-1,10,12,-1,-1,14,-1,-1,-1,-1],"split_conditions":[4.94009E-4,3.8409913E0,1.46E1,2.0826275E-2,8.060733E0,-7.002636E-4,5.835014E0,1.74798E1,-0E0,6.295803E-2,3.88E0,-0E0,-6.2875815E-2,-0E0,2.2731295E-2],"split_indices":[63,30,26,0,30,0,62,17,0,0,3,0,0,0,0],"split_type":[0,0,0,0,0,0,0,0,0,0,0,0,0,0,0],"sum_hessian":[3.4E1,1.7E1,1.7E1,3E0,1.4E1,2E0,1.5E1,1.2E1,2E0,6E0,9E0,1E0,1.1E1,1E0,8E0],"tree_param":{"num_deleted":"0","num_feature":"65","num_nodes":"15","size_leaf_vector":"1"}},{"base_weights":[9.991635E-3,-1.4529802E0,1.5245432E0,2.051388E-2,-2.0443373E0,-6.915101E-4,1.7692331E0,-3.0934871E-3,-2.3915923E0,2.4711027E0,8.461947E-1,-0E0,-6.423982E-2,6.612051E-2,2.1256506E-3,-0E0,2.2276668E-2],"categories":[],"categories_nodes":[],"categories_segments":[],"categories_sizes":[],"default_left":[0,0,0,0,0,0,0,0,0,0,0,0,0,0,0,0,0],"id":16,"left_children":[1,3,5,-1,7,-1,9,-1,11,13,15,-1,-1,-1,-1,-1,-1],"loss_changes":[8.4268684E1,3.0123726E1,9.055809E0,0E0,7.563797E0,0E0,3.5141258E0,0E0,4.8774033E0,1.3642502E-1,6.349993E-2,0E0,0E0,0E0,0E0,0E0,0E0],"parents":[2147483647,0,0,1,1,2,2,4,4,6,6,8,8,9,9,10,10],"right_children":[2,4,6,-1,8,-1,10,-1,12,14,16,-1,-1,-1,-1,-1,-1],"split_conditions":[4.94009E-4,3.8409913E0,1.46E1,2.051388E-2,1.00649864E2,-6.915101E-4,5.835014E0,-3.0934871E-3,1.74798E1,7.7747073E0,3.88E0,-0E0,-6.423982E-2,6.612051E-2,2.1256506E-3,-0E0,2.2276668E-2],"split_indices":[63,30,26,0,15,0,62,0,17,1,3,0,0,0,0,0,0],"split_type":[0,0,0,0,0,0,0,0,0,0,0,0,0,0,0,0,0],"sum_hessian":[3.4E1,1.7E1,1.7E1,3E0,1.4E1,2E0,1.5E1,3E0,1.1E1,6E0,9E0,1E0,1E1,5E0,1E0,1E0,8E0],"tree_param":{"num_deleted":"0","num_feature":"65","num_nodes":"17","size_leaf_vector":"1"}},{"base_weights":[1.2229937E-2,-1.4219203E0,1.4977244E0,2.020617E-2,-2.0036075E0,-6.828665E-4,1.7391777E0,-2.2625022E0,-0E0,2.4295118E0,8.299935E-1,-6.2928095E-2,-2.9346533E-3,6.493979E-2,2.1079371E-3,-0E0,2.1831136E-2],"categories":[],"categories_nodes":[],"categories_segments":[],"categories_sizes":[],"default_left":[0,0,0,0,0,0,0,0,0,0,0,0,0,0,0,0,0],"id":17,"left_children":[1,3,5,-1,7,-1,9,11,-1,13,15,-1,-1,-1,-1,-1,-1],"loss_changes":[8.103029E1,2.9082108E1,8.803162E0,0E0,7.4337387E0,0E0,3.37743E0,4.421234E0,0E0,3.3485413E-2,4.779482E-2,0E0,0E0,0E0,0E0,0E0,0E0],"parents":[2147483647,0,0,1,1,2,2,4,4,6,6,7,7,9,9,10,10],"right_children":[2,4,6,-1,8,-1,10,12,-1,14,16,-1,-1,-1,-1,-1,-1],"split_conditions":[4.94009E-4,3.8409913E0,1.46E1,2.020617E-2,8.060733E0,-6.828665E-4,5.835014E0,4.5307007E1,-0E0,7.7747073E0,3.88E0,-6.2928095E-2,-2.9346533E-3,6.493979E-2,2.1079371E-3,-0E0,2.1831136E-2],"split_indices":[63,30,26,0,30,0,62,2,0,1,3,0,0,0,0,0,0],"split_type":[0,0,0,0,0,0,0,0,0,0,0,0,0,0,0,0,0],"sum_hessian":[3.4E1,1.7E1,1.7E1,3E0,1.4E1,2E0,1.5E1,1.2E1,2E0,6E0,9E0,1E1,2E0,5E0,1E0,1E0,8E0],"tree_param":{"num_deleted":"0","num_feature":"65","num_nodes":"17","size_leaf_vector":"1"}},{"base_weights":[1.4297738E-2,-1.3916818E0,1.4714038E0,1.9903077E-2,-1.9639106E0,-6.743306E-4,1.7096803E0,-2.2171342E0,-0E0,5.9716523E-2,8.141163E-1,-0E0,-5.932158E-2,-0E0,2.1394514E-2],"categories":[],"categories_nodes":[],"categories_segments":[],"categories_sizes":[],"default_left":[0,0,0,0,0,0,0,0,0,0,0,0,0,0,0],"id":18,"left_children":[1,3,5,-1,7,-1,9,11,-1,-1,13,-1,-1,-1,-1],"loss_changes":[7.792698E1,2.8081387E1,8.558472E0,0E0,7.108471E0,0E0,3.2451248E0,4.376648E0,0E0,0E0,3.2964706E-2,0E0,0E0,0E0,0E0],"parents":[2147483647,0,0,1,1,2,2,4,4,6,6,7,7,10,10],"right_children":[2,4,6,-1,8,-1,10,12,-1,-1,14,-1,-1,-1,-1],"split_conditions":[4.94009E-4,3.8409913E0,1.46E1,1.9903077E-2,8.060733E0,-6.743306E-4,5.835014E0,1.74798E1,-0E0,5.9716523E-2,3.88E0,-0E0,-5.932158E-2,-0E0,2.1394514E-2],"split_indices":[63,30,26,0,30,0,62,17,0,0,3,0,0,0,0],"split_type":[0,0,0,0,0,0,0,0,0,0,0,0,0,0,0],"sum_hessian":[3.4E1,1.7E1,1.7E1,3E0,1.4E1,2E0,1.5E1,1.2E1,2E0,6E0,9E0,1E0,1.1E1,1E0,8E0],"tree_param":{"num_deleted":"0","num_feature":"65","num_nodes":"15","size_leaf_vector":"1"}},{"base_weights":[1.609557E-2,-1.3604803E0,1.4436088E0,1.9604532E-2,-1.923127E0,-6.659015E-4,1.6785359E0,-2.4245225E-3,-2.2527022E0,1.9708722E0,7.97405E-3,-0E0,-6.0609307E-2,1.5427622E-2,5.8107525E-2],"categories":[],"categories_nodes":[],"categories_segments":[],"categories_sizes":[],"default_left":[0,0,0,0,0,0,0,0,0,0,0,0,0,0,0],"id":19,"left_children":[1,3,5,-1,7,-1,9,-1,11,13,-1,-1,-1,-1,-1],"loss_changes":[7.475402E1,2.7082157E1,8.303928E0,0E0,6.8430214E0,0E0,3.2095947E0,0E0,4.5603027E0,4.099083E-1,0E0,0E0,0E0,0E0,0E0],"parents":[2147483647,0,0,1,1,2,2,4,4,6,6,8,8,9,9],"right_children":[2,4,6,-1,8,-1,10,-1,12,14,-1,-1,-1,-1,-1],"split_conditions":[4.94009E-4,3.8409913E0,1.46E1,1.9604532E-2,1.00649864E2,-6.659015E-4,7.8603816E0,-2.4245225E-3,1.74798E1,1.58008E1,7.97405E-3,-0E0,-6.0609307E-2,1.5427622E-2,5.8107525E-2],"split_indices":[63,30,26,0,15,0,30,0,17,24,0,0,0,0,0],"split_type":[0,0,0,0,0,0,0,0,0,0,0,0,0,0,0],"sum_hessian":[3.4E1,1.7E1,1.7E1,3E0,1.4E1,2E0,1.5E1,3E0,1.1E1,1.1E1,4E0,1E0,1E1,4E0,7E0],"tree_param":{"num_deleted":"0","num_feature":"65","num_nodes":"15","size_leaf_vector":"1"}},{"base_weights":[1.763795E-2,-1.3312933E0,1.4173441E0,1.9310465E-2,-1.8847916E0,-6.575777E-4,1.649103E0,-2.131215E0,-0E0,2.3065596E0,7.802068E-1,-5.936839E-2,-2.1261442E-3,6.1676152E-2,1.5262823E-3,-0E0,2.0481938E-2],"categories":[],"categories_nodes":[],"categories_segments":[],"categories_sizes":[],"default_left":[0,0,0,0,0,0,0,0,0,0,0,0,0,0,0,0,0],"id":20,"left_children":[1,3,5,-1,7,-1,9,11,-1,13,15,-1,-1,-1,-1,-1,-1],"loss_changes":[7.183172E1,2.614769E1,8.066532E0,0E0,6.750057E0,0E0,3.0254898E0,4.112278E0,0E0,5.3661346E-2,1.6206741E-2,0E0,0E0,0E0,0E0,0E0,0E0],"parents":[2147483647,0,0,1,1,2,2,4,4,6,6,7,7,9,9,10,10],"right_children":[2,4,6,-1,8,-1,10,12,-1,14,16,-1,-1,-1,-1,-1,-1],"split_conditions":[4.94009E-4,3.8409913E0,1.46E1,1.9310465E-2,8.060733E0,-6.575777E-4,5.835014E0,4.5307007E1,-0E0,7.7747073E0,3.88E0,-5.936839E-2,-2.1261442E-3,6.1676152E-2,1.5262823E-3,-0E0,2.0481938E-2],"split_indices":[63,30,26,0,30,0,62,2,0,1,3,0,0,0,0,0,0],"split_type":[0,0,0,0,0,0,0,0,0,0,0,0,0,0,0,0,0],"sum_hessian":[3.4E1,1.7E1,1.7E1,3E0,1.4E1,2E0,1.5E1,1.2E1,2E0,6E0,9E0,1E1,2E0,5E0,1E0,1E0,8E0],"tree_param":{"num_deleted":"0","num_feature":"65","num_nodes":"17","size_leaf_vector":"1"}},{"base_weights":[1.9514553E-2,-1.302872E0,1.3924785E0,1.9020809E-2,-1.8474206E0,-6.4935815E-4,1.6212347E0,-2.0885053E0,-0E0,5.669553E-2,7.653109E-1,-0E0,-5.597266E-2,-0E0,2.0072302E-2],"categories":[],"categories_nodes":[],"categories_segments":[],"categories_sizes":[],"default_left":[0,0,0,0,0,0,0,0,0,0,0,0,0,0,0],"id":21,"left_children":[1,3,5,-1,7,-1,9,11,-1,-1,13,-1,-1,-1,-1],"loss_changes":[6.9079254E1,2.5249702E1,7.844597E0,0E0,6.4585533E0,0E0,2.9039764E0,4.0991554E0,0E0,0E0,3.6463737E-3,0E0,0E0,0E0,0E0],"parents":[2147483647,0,0,1,1,2,2,4,4,6,6,7,7,10,10],"right_children":[2,4,6,-1,8,-1,10,12,-1,-1,14,-1,-1,-1,-1],"split_conditions":[4.94009E-4,3.8409913E0,1.46E1,1.9020809E-2,8.060733E0,-6.4935815E-4,5.835014E0,1.74798E1,-0E0,5.669553E-2,3.88E0,-0E0,-5.597266E-2,-0E0,2.0072302E-2],"split_indices":[63,30,26,0,30,0,62,17,0,0,3,0,0,0,0],"split_type":[0,0,0,0,0,0,0,0,0,0,0,0,0,0,0],"sum_hessian":[3.4E1,1.7E1,1.7E1,3E0,1.4E1,2E0,1.5E1,1.2E1,2E0,6E0,9E0,1E0,1.1E1,1E0,8E0],"tree_param":{"num_deleted":"0","num_feature":"65","num_nodes":"15","size_leaf_vector":"1"}},{"base_weights":[2.1158542E-2,-1.27347E0,1.3661915E0,1.8735496E-2,-1.8089395E0,-6.412409E-4,1.5917786E0,-2.044963E0,-0E0,1.8705916E0,7.2606066E-3,-0E0,-5.480036E-2,5.10018E-2,5.4806285E-3],"categories":[],"categories_nodes":[],"categories_segments":[],"categories_sizes":[],"default_left":[0,0,0,0,0,0,0,0,0,0,0,0,0,0,0],"id":22,"left_children":[1,3,5,-1,7,-1,9,11,-1,13,-1,-1,-1,-1,-1],"loss_changes":[6.625979E1,2.4351545E1,7.6134377E0,0E0,6.190033E0,0E0,2.920639E0,3.9178314E0,0E0,4.8459244E-1,0E0,0E0,0E0,0E0,0E0],"parents":[2147483647,0,0,1,1,2,2,4,4,6,6,7,7,9,9],"right_children":[2,4,6,-1,8,-1,10,12,-1,14,-1,-1,-1,-1,-1],"split_conditions":[4.94009E-4,3.8409913E0,1.46E1,1.8735496E-2,2.74E11,-6.412409E-4,7.8603816E0,1.74798E1,-0E0,1.0882353E1,7.2606066E-3,-0E0,-5.480036E-2,5.10018E-2,5.4806285E-3],"split_indices":[63,30,26,0,4,0,30,17,0,32,0,0,0,0,0],"split_type":[0,0,0,0,0,0,0,0,0,0,0,0,0,0,0],"sum_hessian":[3.4E1,1.7E1,1.7E1,3E0,1.4E1,2E0,1.5E1,1.2E1,2E0,1.1E1,4E0,1E0,1.1E1,9E0,2E0],"tree_param":{"num_deleted":"0","num_feature":"65","num_nodes":"15","size_leaf_vector":"1"}},{"base_weights":[2.2515766E-2,-1.2447017E0,1.3399948E0,1.8454462E-2,-1.7712641E0,-6.332255E-4,1.5624245E0,-2.0053835E0,-0E0,2.1925159E0,1.8229753E-2,-5.605455E-2,-1.0574069E-3,5.8651622E-2,9.805958E-4],"categories":[],"categories_nodes":[],"categories_segments":[],"categories_sizes":[],"default_left":[0,0,0,0,0,0,0,0,0,0,0,0,0,0,0],"id":23,"left_children":[1,3,5,-1,7,-1,9,11,-1,13,-1,-1,-1,-1,-1],"loss_changes":[6.353425E1,2.3486197E1,7.3863297E0,0E0,6.103863E0,0E0,2.8060036E0,4.0338364E0,0E0,7.575989E-2,0E0,0E0,0E0,0E0,0E0],"parents":[2147483647,0,0,1,1,2,2,4,4,6,6,7,7,9,9],"right_children":[2,4,6,-1,8,-1,10,12,-1,14,-1,-1,-1,-1,-1],"split_conditions":[4.94009E-4,3.8409913E0,1.46E1,1.8454462E-2,8.060733E0,-6.332255E-4,5.835014E0,4.5307007E1,-0E0,7.7747073E0,1.8229753E-2,-5.605455E-2,-1.0574069E-3,5.8651622E-2,9.805958E-4],"split_indices":[63,30,26,0,30,0,62,2,0,1,0,0,0,0,0],"split_type":[0,0,0,0,0,0,0,0,0,0,0,0,0,0,0],"sum_hessian":[3.4E1,1.7E1,1.7E1,3E0,1.4E1,2E0,1.5E1,1.2E1,2E0,6E0,9E0,1E1,2E0,5E0,1E0],"tree_param":{"num_deleted":"0","num_feature":"65","num_nodes":"15","size_leaf_vector":"1"}},{"base_weights":[2.3911832E-2,-1.2180018E0,1.31594E0,1.8177647E-2,-1.7360978E0,-6.253101E-4,1.5354654E0,-1.9651935E0,-0E0,5.38934E-2,7.142749E-1,-0E0,-5.2760523E-2,-0E0,1.8732535E-2],"categories":[],"categories_nodes":[],"categories_segments":[],"categories_sizes":[],"default_left":[0,0,0,0,0,0,0,0,0,0,0,0,0,0,0],"id":24,"left_children":[1,3,5,-1,7,-1,9,11,-1,-1,13,-1,-1,-1,-1],"loss_changes":[6.1068726E1,2.268094E1,7.1803513E0,0E0,5.843231E0,0E0,2.7095413E0,3.832592E0,0E0,0E0,2.4518967E-3,0E0,0E0,0E0,0E0],"parents":[2147483647,0,0,1,1,2,2,4,4,6,6,7,7,10,10],"right_children":[2,4,6,-1,8,-1,10,12,-1,-1,14,-1,-1,-1,-1],"split_conditions":[4.94009E-4,3.8409913E0,1.46E1,1.8177647E-2,8.060733E0,-6.253101E-4,5.835014E0,1.74798E1,-0E0,5.38934E-2,3.88E0,-0E0,-5.2760523E-2,-0E0,1.8732535E-2],"split_indices":[63,30,26,0,30,0,62,17,0,0,3,0,0,0,0],"split_type":[0,0,0,0,0,0,0,0,0,0,0,0,0,0,0],"sum_hessian":[3.4E1,1.7E1,1.7E1,3E0,1.4E1,2E0,1.5E1,1.2E1,2E0,6E0,9E0,1E0,1.1E1,1E0,8E0],"tree_param":{"num_deleted":"0","num_feature":"65","num_nodes":"15","size_leaf_vector":"1"}},{"base_weights":[2.5408003E-2,-1.1903265E0,1.2910995E0,1.790498E-2,-1.6998249E0,-6.174937E-4,1.5076288E0,-9.94986E-4,-1.9998617E0,1.7740935E0,6.526978E-3,-0E0,-5.4002013E-2,1.3218194E-2,5.2474584E-2],"categories":[],"categories_nodes":[],"categories_segments":[],"categories_sizes":[],"default_left":[0,0,0,0,0,0,0,0,0,0,0,0,0,0,0],"id":25,"left_children":[1,3,5,-1,7,-1,9,-1,11,13,-1,-1,-1,-1,-1],"loss_changes":[5.8569244E1,2.1874517E1,6.9706783E0,0E0,5.7702484E0,0E0,2.685215E0,0E0,3.9985619E0,4.1259384E-1,0E0,0E0,0E0,0E0,0E0],"parents":[2147483647,0,0,1,1,2,2,4,4,6,6,8,8,9,9],"right_children":[2,4,6,-1,8,-1,10,-1,12,14,-1,-1,-1,-1,-1],"split_conditions":[4.94009E-4,3.8409913E0,1.46E1,1.790498E-2,1.00649864E2,-6.174937E-4,7.8603816E0,-9.94986E-4,1.74798E1,1.58008E1,6.526978E-3,-0E0,-5.4002013E-2,1.3218194E-2,5.2474584E-2],"split_indices":[63,30,26,0,15,0,30,0,17,24,0,0,0,0,0],"split_type":[0,0,0,0,0,0,0,0,0,0,0,0,0,0,0],"sum_hessian":[3.4E1,1.7E1,1.7E1,3E0,1.4E1,2E0,1.5E1,3E0,1.1E1,1.1E1,4E0,1E0,1E1,4E0,7E0],"tree_param":{"num_deleted":"0","num_feature":"65","num_nodes":"15","size_leaf_vector":"1"}},{"base_weights":[2.6636379E-2,-1.1645744E0,1.2676749E0,1.7636407E-2,-1.6658871E0,-6.09775E-4,1.4813757E0,-1.8888812E0,-0E0,1.6869408E0,2.831078E-3,-5.2884955E-2,-3.7224553E-4,1.5303611E-2,5.537505E-2],"categories":[],"categories_nodes":[],"categories_segments":[],"categories_sizes":[],"default_left":[0,0,0,0,0,0,0,0,0,0,0,0,0,0,0],"id":26,"left_children":[1,3,5,-1,7,-1,9,11,-1,13,-1,-1,-1,-1,-1],"loss_changes":[5.627589E1,2.1122786E1,6.775446E0,0E0,5.547325E0,0E0,2.5988312E0,3.749588E0,0E0,2.4068642E0,0E0,0E0,0E0,0E0,0E0],"parents":[2147483647,0,0,1,1,2,2,4,4,6,6,7,7,9,9],"right_children":[2,4,6,-1,8,-1,10,12,-1,14,-1,-1,-1,-1,-1],"split_conditions":[4.94009E-4,3.8409913E0,1.46E1,1.7636407E-2,8.060733E0,-6.09775E-4,7.861889E0,4.5307007E1,-0E0,1.58272E1,2.831078E-3,-5.2884955E-2,-3.7224553E-4,1.5303611E-2,5.537505E-2],"split_indices":[63,30,26,0,30,0,29,2,0,24,0,0,0,0,0],"split_type":[0,0,0,0,0,0,0,0,0,0,0,0,0,0,0],"sum_hessian":[3.4E1,1.7E1,1.7E1,3E0,1.4E1,2E0,1.5E1,1.2E1,2E0,1.2E1,3E0,1E1,2E0,6E0,6E0],"tree_param":{"num_deleted":"0","num_feature":"65","num_nodes":"15","size_leaf_vector":"1"}},{"base_weights":[2.7895808E-2,-1.1394857E0,1.2449725E0,1.7371861E-2,-1.6327875E0,-6.0215296E-4,1.4559307E0,-1.851053E0,-0E0,1.65665E0,2.788612E-3,-0E0,-4.9789213E-2,1.5016668E-2,5.4336768E-2],"categories":[],"categories_nodes":[],"categories_segments":[],"categories_sizes":[],"default_left":[0,0,0,0,0,0,0,0,0,0,0,0,0,0,0],"id":27,"left_children":[1,3,5,-1,7,-1,9,11,-1,13,-1,-1,-1,-1,-1],"loss_changes":[5.4091286E1,2.040005E1,6.588627E0,0E0,5.3136406E0,0E0,2.4495773E0,3.5929222E0,0E0,2.255352E0,0E0,0E0,0E0,0E0,0E0],"parents":[2147483647,0,0,1,1,2,2,4,4,6,6,7,7,9,9],"right_children":[2,4,6,-1,8,-1,10,12,-1,14,-1,-1,-1,-1,-1],"split_conditions":[4.94009E-4,3.8409913E0,1.46E1,1.7371861E-2,8.060733E0,-6.0215296E-4,7.861889E0,1.74798E1,-0E0,1.58272E1,2.788612E-3,-0E0,-4.9789213E-2,1.5016668E-2,5.4336768E-2],"split_indices":[63,30,26,0,30,0,29,17,0,24,0,0,0,0,0],"split_type":[0,0,0,0,0,0,0,0,0,0,0,0,0,0,0],"sum_hessian":[3.4E1,1.7E1,1.7E1,3E0,1.4E1,2E0,1.5E1,1.2E1,2E0,1.2E1,3E0,1E0,1.1E1,6E0,6E0],"tree_param":{"num_deleted":"0","num_feature":"65","num_nodes":"15","size_leaf_vector":"1"}},{"base_weights":[2.9903676E-2,-1.1134033E0,1.2226945E0,1.7111283E-2,-1.5985575E0,-5.946262E-4,1.4309609E0,-4.7844648E-4,-1.8831716E0,1.626927E0,2.7467827E-3,-0E0,-5.0951827E-2,1.4735105E-2,5.3317953E-2],"categories":[],"categories_nodes":[],"categories_segments":[],"categories_sizes":[],"default_left":[0,0,0,0,0,0,0,0,0,0,0,0,0,0,0],"id":28,"left_children":[1,3,5,-1,7,-1,9,-1,11,13,-1,-1,-1,-1,-1],"loss_changes":[5.1926132E1,1.9674871E1,6.4076405E0,0E0,5.218014E0,0E0,2.3068123E0,0E0,3.74255E0,2.1105843E0,0E0,0E0,0E0,0E0,0E0],"parents":[2147483647,0,0,1,1,2,2,4,4,6,6,8,8,9,9],"right_children":[2,4,6,-1,8,-1,10,-1,12,14,-1,-1,-1,-1,-1],"split_conditions":[4.94009E-4,3.8409913E0,1.46E1,1.7111283E-2,1.00649864E2,-5.946262E-4,7.861889E0,-4.7844648E-4,1.74798E1,1.58272E1,2.7467827E-3,-0E0,-5.0951827E-2,1.4735105E-2,5.3317953E-2],"split_indices":[63,30,26,0,15,0,29,0,17,24,0,0,0,0,0],"split_type":[0,0,0,0,0,0,0,0,0,0,0,0,0,0,0],"sum_hessian":[3.4E1,1.7E1,1.7E1,3E0,1.4E1,2E0,1.5E1,3E0,1.1E1,1.2E1,3E0,1E0,1E1,6E0,6E0],"tree_param":{"num_deleted":"0","num_feature":"65","num_nodes":"15","size_leaf_vector":"1"}},{"base_weights":[3.1132843E-2,-1.0892129E0,1.200833E0,1.6854612E-2,-1.5666229E0,-5.87193E-4,1.4064574E0,-1.77911E0,-0E0,1.6520195E0,5.9730127E-3,-4.9894292E-2,-0E0,4.5012113E-2,4.1932845E-3],"categories":[],"categories_nodes":[],"categories_segments":[],"categories_sizes":[],"default_left":[0,0,0,0,0,0,0,0,0,0,0,0,0,0,0],"id":29,"left_children":[1,3,5,-1,7,-1,9,11,-1,13,-1,-1,-1,-1,-1],"loss_changes":[4.990441E1,1.9000235E1,6.2322903E0,0E0,5.0443344E0,0E0,2.1936073E0,3.4840012E0,0E0,2.9252625E-1,0E0,0E0,0E0,0E0,0E0],"parents":[2147483647,0,0,1,1,2,2,4,4,6,6,7,7,9,9],"right_children":[2,4,6,-1,8,-1,10,12,-1,14,-1,-1,-1,-1,-1],"split_conditions":[4.94009E-4,3.8409913E0,1.46E1,1.6854612E-2,8.060733E0,-5.87193E-4,7.8603816E0,4.5307007E1,-0E0,1.198939E1,5.9730127E-3,-4.9894292E-2,-0E0,4.5012113E-2,4.1932845E-3],"split_indices":[63,30,26,0,30,0,30,2,0,0,0,0,0,0,0],"split_type":[0,0,0,0,0,0,0,0,0,0,0,0,0,0,0],"sum_hessian":[3.4E1,1.7E1,1.7E1,3E0,1.4E1,2E0,1.5E1,1.2E1,2E0,1.1E1,4E0,1E1,2E0,9E0,2E0],"tree_param":{"num_deleted":"0","num_feature":"65","num_nodes":"15","size_leaf_vector":"1"}},{"base_weights":[3.1470787E-2,-1.065614E0,1.1778743E0,1.6601793E-2,-1.535439E0,-5.7985325E-4,1.3807288E0,-1.7434711E0,-0E0,4.863247E-2,1.5704546E-2,-0E0,-4.6988726E-2],"categories":[],"categories_nodes":[],"categories_segments":[],"categories_sizes":[],"default_left":[0,0,0,0,0,0,0,0,0,0,0,0,0],"id":30,"left_children":[1,3,5,-1,7,-1,9,11,-1,-1,-1,-1,-1],"loss_changes":[4.7899845E1,1.8350992E1,6.050783E0,0E0,4.8345184E0,0E0,2.205227E0,3.3694801E0,0E0,0E0,0E0,0E0,0E0],"parents":[2147483647,0,0,1,1,2,2,4,4,6,6,7,7],"right_children":[2,4,6,-1,8,-1,10,12,-1,-1,-1,-1,-1],"split_conditions":[4.94009E-4,3.8409913E0,1.46E1,1.6601793E-2,8.060733E0,-5.7985325E-4,5.835014E0,1.74798E1,-0E0,4.863247E-2,1.5704546E-2,-0E0,-4.6988726E-2],"split_indices":[63,30,26,0,30,0,62,17,0,0,0,0,0],"split_type":[0,0,0,0,0,0,0,0,0,0,0,0,0],"sum_hessian":[3.4E1,1.7E1,1.7E1,3E0,1.4E1,2E0,1.5E1,1.2E1,2E0,6E0,9E0,1E0,1.1E1],"tree_param":{"num_deleted":"0","num_feature":"65","num_nodes":"13","size_leaf_vector":"1"}},{"base_weights":[3.2445636E-2,-1.0410312E0,1.1551387E0,1.6352767E-2,-1.5031343E0,-5.7260523E-4,1.3552502E0,-1.3831258E-6,-1.773067E0,1.5942591E0,5.4745204E-3,-0E0,-4.807378E-2,4.348428E-2,3.7017844E-3],"categories":[],"categories_nodes":[],"categories_segments":[],"categories_sizes":[],"default_left":[0,0,0,0,0,0,0,0,0,0,0,0,0,0,0],"id":31,"left_children":[1,3,5,-1,7,-1,9,-1,11,13,-1,-1,-1,-1,-1],"loss_changes":[4.590584E1,1.7698727E1,5.8734856E0,0E0,4.7183647E0,0E0,2.1053696E0,0E0,3.5039291E0,3.2562637E-1,0E0,0E0,0E0,0E0,0E0],"parents":[2147483647,0,0,1,1,2,2,4,4,6,6,8,8,9,9],"right_children":[2,4,6,-1,8,-1,10,-1,12,14,-1,-1,-1,-1,-1],"split_conditions":[4.94009E-4,3.8409913E0,1.46E1,1.6352767E-2,1.00649864E2,-5.7260523E-4,7.8603816E0,-1.3831258E-6,1.74798E1,1.0882353E1,5.4745204E-3,-0E0,-4.807378E-2,4.348428E-2,3.7017844E-3],"split_indices":[63,30,26,0,15,0,30,0,17,32,0,0,0,0,0],"split_type":[0,0,0,0,0,0,0,0,0,0,0,0,0,0,0],"sum_hessian":[3.4E1,1.7E1,1.7E1,3E0,1.4E1,2E0,1.5E1,3E0,1.1E1,1.1E1,4E0,1E0,1E1,9E0,2E0],"tree_param":{"num_deleted":"0","num_feature":"65","num_nodes":"15","size_leaf_vector":"1"}},{"base_weights":[3.2783628E-2,-1.018311E0,1.133059E0,1.6107475E-2,-1.4730878E0,-5.6544755E-4,1.3305055E0,-1.6756467E0,-0E0,1.8809623E0,1.4933852E-2,-4.7072403E-2,-0E0,5.0344866E-2,-0E0],"categories":[],"categories_nodes":[],"categories_segments":[],"categories_sizes":[],"default_left":[0,0,0,0,0,0,0,0,0,0,0,0,0,0,0],"id":32,"left_children":[1,3,5,-1,7,-1,9,11,-1,13,-1,-1,-1,-1,-1],"loss_changes":[4.4056133E1,1.7093218E1,5.703577E0,0E0,4.589279E0,0E0,2.1351395E0,3.2344894E0,0E0,8.3431244E-2,0E0,0E0,0E0,0E0,0E0],"parents":[2147483647,0,0,1,1,2,2,4,4,6,6,7,7,9,9],"right_children":[2,4,6,-1,8,-1,10,12,-1,14,-1,-1,-1,-1,-1],"split_conditions":[4.94009E-4,3.8409913E0,1.46E1,1.6107475E-2,8.060733E0,-5.6544755E-4,5.835014E0,4.5307007E1,-0E0,7.7747073E0,1.4933852E-2,-4.7072403E-2,-0E0,5.0344866E-2,-0E0],"split_indices":[63,30,26,0,30,0,62,2,0,1,0,0,0,0,0],"split_type":[0,0,0,0,0,0,0,0,0,0,0,0,0,0,0],"sum_hessian":[3.4E1,1.7E1,1.7E1,3E0,1.4E1,2E0,1.5E1,1.2E1,2E0,6E0,9E0,1E1,2E0,5E0,1E0],"tree_param":{"num_deleted":"0","num_feature":"65","num_nodes":"15","size_leaf_vector":"1"}},{"base_weights":[3.3822637E-2,-9.960794E-1,1.112796E0,1.5865862E-2,-1.4436675E0,-5.583793E-4,1.3077921E0,-1.6420234E0,-0E0,1.8494967E0,1.4628387E-2,-0E0,-4.4347968E-2,5.3151608E-2,6.4974236E-3],"categories":[],"categories_nodes":[],"categories_segments":[],"categories_sizes":[],"default_left":[0,0,0,0,0,0,0,0,0,0,0,0,0,0,0],"id":33,"left_children":[1,3,5,-1,7,-1,9,11,-1,13,-1,-1,-1,-1,-1],"loss_changes":[4.2338108E1,1.6509314E1,5.549452E0,0E0,4.4005585E0,0E0,2.0558853E0,3.160862E0,0E0,2.5976181E-2,0E0,0E0,0E0,0E0,0E0],"parents":[2147483647,0,0,1,1,2,2,4,4,6,6,7,7,9,9],"right_children":[2,4,6,-1,8,-1,10,12,-1,14,-1,-1,-1,-1,-1],"split_conditions":[4.94009E-4,3.8409913E0,1.46E1,1.5865862E-2,8.060733E0,-5.583793E-4,5.835014E0,1.74798E1,-0E0,7.639E0,1.4628387E-2,-0E0,-4.4347968E-2,5.3151608E-2,6.4974236E-3],"split_indices":[63,30,26,0,30,0,62,17,0,9,0,0,0,0,0],"split_type":[0,0,0,0,0,0,0,0,0,0,0,0,0,0,0],"sum_hessian":[3.4E1,1.7E1,1.7E1,3E0,1.4E1,2E0,1.5E1,1.2E1,2E0,6E0,9E0,1E0,1.1E1,4E0,2E0],"tree_param":{"num_deleted":"0","num_feature":"65","num_nodes":"15","size_leaf_vector":"1"}},{"base_weights":[3.6158476E-2,-9.729094E-1,1.0940517E0,1.5627874E-2,-1.4131783E0,-5.513996E-4,1.2867769E0,-0E0,-1.6691751E0,4.5532417E-2,5.731668E-1,-0E0,-4.5358106E-2,-0E0,1.50310835E-2],"categories":[],"categories_nodes":[],"categories_segments":[],"categories_sizes":[],"default_left":[0,0,0,0,0,0,0,0,0,0,0,0,0,0,0],"id":34,"left_children":[1,3,5,-1,7,-1,9,-1,11,-1,13,-1,-1,-1,-1],"loss_changes":[4.067947E1,1.5922512E1,5.4084225E0,0E0,4.2667255E0,0E0,2.0021782E0,0E0,3.281376E0,0E0,1.2133121E-3,0E0,0E0,0E0,0E0],"parents":[2147483647,0,0,1,1,2,2,4,4,6,6,8,8,10,10],"right_children":[2,4,6,-1,8,-1,10,-1,12,-1,14,-1,-1,-1,-1],"split_conditions":[4.94009E-4,3.8409913E0,1.46E1,1.5627874E-2,1.00649864E2,-5.513996E-4,5.835014E0,-0E0,1.74798E1,4.5532417E-2,3.88E0,-0E0,-4.5358106E-2,-0E0,1.50310835E-2],"split_indices":[63,30,26,0,15,0,62,0,17,0,3,0,0,0,0],"split_type":[0,0,0,0,0,0,0,0,0,0,0,0,0,0,0],"sum_hessian":[3.4E1,1.7E1,1.7E1,3E0,1.4E1,2E0,1.5E1,3E0,1.1E1,6E0,9E0,1E0,1E1,1E0,8E0],"tree_param":{"num_deleted":"0","num_feature":"65","num_nodes":"15","size_leaf_vector":"1"}},{"base_weights":[3.6557294E-2,-9.5150423E-1,1.0734023E0,1.5393457E-2,-1.3848295E0,-5.4450706E-4,1.2636331E0,-1.5780197E0,-0E0,1.4892735E0,4.671701E-3,-4.4409737E-2,-0E0,1.0102902E-2,4.426628E-2],"categories":[],"categories_nodes":[],"categories_segments":[],"categories_sizes":[],"default_left":[0,0,0,0,0,0,0,0,0,0,0,0,0,0,0],"id":35,"left_children":[1,3,5,-1,7,-1,9,11,-1,13,-1,-1,-1,-1,-1],"loss_changes":[3.904539E1,1.5377867E1,5.25531E0,0E0,4.178007E0,0E0,1.8976116E0,3.0046654E0,0E0,3.6354256E-1,0E0,0E0,0E0,0E0,0E0],"parents":[2147483647,0,0,1,1,2,2,4,4,6,6,7,7,9,9],"right_children":[2,4,6,-1,8,-1,10,12,-1,14,-1,-1,-1,-1,-1],"split_conditions":[4.94009E-4,3.8409913E0,1.46E1,1.5393457E-2,8.060733E0,-5.4450706E-4,7.8603816E0,4.5307007E1,-0E0,1.58008E1,4.671701E-3,-4.4409737E-2,-0E0,1.0102902E-2,4.426628E-2],"split_indices":[63,30,26,0,30,0,30,2,0,24,0,0,0,0,0],"split_type":[0,0,0,0,0,0,0,0,0,0,0,0,0,0,0],"sum_hessian":[3.4E1,1.7E1,1.7E1,3E0,1.4E1,2E0,1.5E1,1.2E1,2E0,1.1E1,4E0,1E1,2E0,4E0,7E0],"tree_param":{"num_deleted":"0","num_feature":"65","num_nodes":"15","size_leaf_vector":"1"}},{"base_weights":[3.7391864E-2,-9.3056124E-1,1.0540406E0,1.5162555E-2,-1.3570734E0,-5.377009E-4,1.2419295E0,-1.5462985E0,-0E0,1.4158535E0,1.4542692E-3,-0E0,-4.1856162E-2,1.2120741E-2,4.669785E-2],"categories":[],"categories_nodes":[],"categories_segments":[],"categories_sizes":[],"default_left":[0,0,0,0,0,0,0,0,0,0,0,0,0,0,0],"id":36,"left_children":[1,3,5,-1,7,-1,9,11,-1,13,-1,-1,-1,-1,-1],"loss_changes":[3.751163E1,1.4852655E1,5.1134357E0,0E0,4.0081787E0,0E0,1.8612804E0,2.965767E0,0E0,1.728323E0,0E0,0E0,0E0,0E0,0E0],"parents":[2147483647,0,0,1,1,2,2,4,4,6,6,7,7,9,9],"right_children":[2,4,6,-1,8,-1,10,12,-1,14,-1,-1,-1,-1,-1],"split_conditions":[4.94009E-4,3.8409913E0,1.46E1,1.5162555E-2,8.060733E0,-5.377009E-4,7.861889E0,1.74798E1,-0E0,1.58272E1,1.4542692E-3,-0E0,-4.1856162E-2,1.2120741E-2,4.669785E-2],"split_indices":[63,30,26,0,30,0,29,17,0,24,0,0,0,0,0],"split_type":[0,0,0,0,0,0,0,0,0,0,0,0,0,0,0],"sum_hessian":[3.4E1,1.7E1,1.7E1,3E0,1.4E1,2E0,1.5E1,1.2E1,2E0,1.2E1,3E0,1E0,1.1E1,6E0,6E0],"tree_param":{"num_deleted":"0","num_feature":"65","num_nodes":"15","size_leaf_vector":"1"}},{"base_weights":[3.902326E-2,-9.087228E-1,1.0352932E0,1.4935116E-2,-1.3282973E0,-5.309797E-4,1.2209134E0,-0E0,-1.5711457E0,1.3906455E0,1.4324549E-3,-0E0,-4.279566E-2,1.1893477E-2,4.5822263E-2],"categories":[],"categories_nodes":[],"categories_segments":[],"categories_sizes":[],"default_left":[0,0,0,0,0,0,0,0,0,0,0,0,0,0,0],"id":37,"left_children":[1,3,5,-1,7,-1,9,-1,11,13,-1,-1,-1,-1,-1],"loss_changes":[3.5999752E1,1.43246765E1,4.9776974E0,0E0,3.8605003E0,0E0,1.7502403E0,0E0,3.0737152E0,1.6119938E0,0E0,0E0,0E0,0E0,0E0],"parents":[2147483647,0,0,1,1,2,2,4,4,6,6,8,8,9,9],"right_children":[2,4,6,-1,8,-1,10,-1,12,14,-1,-1,-1,-1,-1],"split_conditions":[4.94009E-4,3.8409913E0,1.46E1,1.4935116E-2,1.00649864E2,-5.309797E-4,7.861889E0,-0E0,1.74798E1,1.58272E1,1.4324549E-3,-0E0,-4.279566E-2,1.1893477E-2,4.5822263E-2],"split_indices":[63,30,26,0,15,0,29,0,17,24,0,0,0,0,0],"split_type":[0,0,0,0,0,0,0,0,0,0,0,0,0,0,0],"sum_hessian":[3.4E1,1.7E1,1.7E1,3E0,1.4E1,2E0,1.5E1,3E0,1.1E1,1.2E1,3E0,1E0,1E1,6E0,6E0],"tree_param":{"num_deleted":"0","num_feature":"65","num_nodes":"15","size_leaf_vector":"1"}},{"base_weights":[3.9957184E-2,-8.88557E-1,1.016897E0,5.884436E-1,-1.30155E0,-5.2434223E-4,1.2002903E0,-0E0,1.647022E-2,-1.4859002E0,-0E0,1.6980702E0,1.3228126E-2,-4.1897316E-2,-0E0,4.9227107E-2,4.812848E-3],"categories":[],"categories_nodes":[],"categories_segments":[],"categories_sizes":[],"default_left":[0,0,0,0,0,0,0,0,0,0,0,0,0,0,0,0,0],"id":38,"left_children":[1,3,5,7,9,-1,11,-1,-1,13,-1,15,-1,-1,-1,-1,-1],"loss_changes":[3.4591167E1,1.3834713E1,4.8461018E0,4.7866106E-3,3.8060684E0,0E0,1.6553955E0,0E0,0E0,2.7928028E0,0E0,3.4446526E-1,0E0,0E0,0E0,0E0,0E0],"parents":[2147483647,0,0,1,1,2,2,3,3,4,4,6,6,9,9,11,11],"right_children":[2,4,6,8,10,-1,12,-1,-1,14,-1,16,-1,-1,-1,-1,-1],"split_conditions":[4.94009E-4,3.8409913E0,1.46E1,6.3728814E0,8.060733E0,-5.2434223E-4,5.835014E0,-0E0,1.647022E-2,4.5307007E1,-0E0,7.639E0,1.3228126E-2,-4.1897316E-2,-0E0,4.9227107E-2,4.812848E-3],"split_indices":[63,30,26,0,30,0,62,0,0,2,0,9,0,0,0,0,0],"split_type":[0,0,0,0,0,0,0,0,0,0,0,0,0,0,0,0,0],"sum_hessian":[3.4E1,1.7E1,1.7E1,3E0,1.4E1,2E0,1.5E1,1E0,2E0,1.2E1,2E0,6E0,9E0,1E1,2E0,4E0,2E0],"tree_param":{"num_deleted":"0","num_feature":"65","num_nodes":"17","size_leaf_vector":"1"}},{"base_weights":[4.166536E-2,-8.6823946E-1,9.9981594E-1,5.8185554E-1,-1.2753642E0,-5.1778834E-4,1.1811382E0,-0E0,1.6264342E-2,-1.4559735E0,-0E0,1.3002273E0,-0E0,-0E0,-3.9504904E-2,1.1448745E-2,4.12217E-2],"categories":[],"categories_nodes":[],"categories_segments":[],"categories_sizes":[],"default_left":[0,0,0,0,0,0,0,0,0,0,0,0,0,0,0,0,0],"id":39,"left_children":[1,3,5,7,9,-1,11,-1,-1,13,-1,15,-1,-1,-1,-1,-1],"loss_changes":[3.3253468E1,1.3394686E1,4.725197E0,2.052784E-4,3.65316E0,0E0,1.6423798E0,0E0,0E0,2.7832355E0,0E0,7.877674E-1,0E0,0E0,0E0,0E0,0E0],"parents":[2147483647,0,0,1,1,2,2,3,3,4,4,6,6,9,9,11,11],"right_children":[2,4,6,8,10,-1,12,-1,-1,14,-1,16,-1,-1,-1,-1,-1],"split_conditions":[4.94009E-4,3.8409913E0,1.46E1,6.3728814E0,8.060733E0,-5.1778834E-4,7.9229364E0,-0E0,1.6264342E-2,1.74798E1,-0E0,1.58272E1,-0E0,-0E0,-3.9504904E-2,1.1448745E-2,4.12217E-2],"split_indices":[63,30,26,0,30,0,29,0,0,17,0,24,0,0,0,0,0],"split_type":[0,0,0,0,0,0,0,0,0,0,0,0,0,0,0,0,0],"sum_hessian":[3.4E1,1.7E1,1.7E1,3E0,1.4E1,2E0,1.5E1,1E0,2E0,1.2E1,2E0,1.3E1,2E0,1E0,1.1E1,6E0,7E0],"tree_param":{"num_deleted":"0","num_feature":"65","num_nodes":"17","size_leaf_vector":"1"}},{"base_weights":[4.293808E-2,-8.470802E-1,9.8106813E-1,1.4383745E-2,-1.2482046E0,-5.1131565E-4,1.1601238E0,-1.4249338E0,-0E0,1.3229156E0,1.0064378E-3,-4.0283736E-2,-0E0,1.1234081E-2,4.3518476E-2],"categories":[],"categories_nodes":[],"categories_segments":[],"categories_sizes":[],"default_left":[0,0,0,0,0,0,0,0,0,0,0,0,0,0,0],"id":40,"left_children":[1,3,5,-1,7,-1,9,11,-1,13,-1,-1,-1,-1,-1],"loss_changes":[3.185438E1,1.2950018E1,4.5943565E0,0E0,3.4978771E0,0E0,1.6294975E0,2.7312508E0,0E0,1.3553181E0,0E0,0E0,0E0,0E0,0E0],"parents":[2147483647,0,0,1,1,2,2,4,4,6,6,7,7,9,9],"right_children":[2,4,6,-1,8,-1,10,12,-1,14,-1,-1,-1,-1,-1],"split_conditions":[4.94009E-4,3.8409913E0,1.46E1,1.4383745E-2,8.060733E0,-5.1131565E-4,7.861889E0,4.5307007E1,-0E0,1.58272E1,1.0064378E-3,-4.0283736E-2,-0E0,1.1234081E-2,4.3518476E-2],"split_indices":[63,30,26,0,30,0,29,2,0,24,0,0,0,0,0],"split_type":[0,0,0,0,0,0,0,0,0,0,0,0,0,0,0],"sum_hessian":[3.4E1,1.7E1,1.7E1,3E0,1.4E1,2E0,1.5E1,1.2E1,2E0,1.2E1,3E0,1E1,2E0,6E0,6E0],"tree_param":{"num_deleted":"0","num_feature":"65","num_nodes":"15","size_leaf_vector":"1"}},{"base_weights":[4.3748446E-2,-8.281494E-1,9.6367276E-1,5.6671953E-1,-1.2230272E0,-5.049244E-4,1.1406218E0,-0E0,1.588124E-2,-1.3961598E0,-0E0,1.2994502E0,9.913413E-4,-0E0,-3.7972007E-2,1.1023442E-2,4.2702504E-2],"categories":[],"categories_nodes":[],"categories_segments":[],"categories_sizes":[],"default_left":[0,0,0,0,0,0,0,0,0,0,0,0,0,0,0,0,0],"id":41,"left_children":[1,3,5,7,9,-1,11,-1,-1,13,-1,15,-1,-1,-1,-1,-1],"loss_changes":[3.0606533E1,1.2507791E1,4.4743004E0,8.31306E-3,3.3569393E0,0E0,1.5305443E0,0E0,0E0,2.701292E0,0E0,1.2562675E0,0E0,0E0,0E0,0E0,0E0],"parents":[2147483647,0,0,1,1,2,2,3,3,4,4,6,6,9,9,11,11],"right_children":[2,4,6,8,10,-1,12,-1,-1,14,-1,16,-1,-1,-1,-1,-1],"split_conditions":[4.94009E-4,3.8409913E0,1.46E1,6.3728814E0,8.060733E0,-5.049244E-4,7.861889E0,-0E0,1.588124E-2,1.74798E1,-0E0,1.58272E1,9.913413E-4,-0E0,-3.7972007E-2,1.1023442E-2,4.2702504E-2],"split_indices":[63,30,26,0,30,0,29,0,0,17,0,24,0,0,0,0,0],"split_type":[0,0,0,0,0,0,0,0,0,0,0,0,0,0,0,0,0],"sum_hessian":[3.4E1,1.7E1,1.7E1,3E0,1.4E1,2E0,1.5E1,1E0,2E0,1.2E1,2E0,1.2E1,3E0,1E0,1.1E1,6E0,6E0],"tree_param":{"num_deleted":"0","num_feature":"65","num_nodes":"17","size_leaf_vector":"1"}},{"base_weights":[4.5459837E-2,-8.078373E-1,9.466033E-1,5.6036705E-1,-1.1969215E0,-4.986129E-4,1.1214848E0,-0E0,1.5682725E-2,-0E0,-1.4213718E0,1.2764248E0,9.764712E-4,-0E0,-3.89105E-2,1.0816752E-2,4.1901834E-2],"categories":[],"categories_nodes":[],"categories_segments":[],"categories_sizes":[],"default_left":[0,0,0,0,0,0,0,0,0,0,0,0,0,0,0,0,0],"id":42,"left_children":[1,3,5,7,9,-1,11,-1,-1,-1,13,15,-1,-1,-1,-1,-1],"loss_changes":[2.9350122E1,1.2092573E1,4.357868E0,4.0102005E-3,3.3419342E0,0E0,1.435894E0,0E0,0E0,0E0,2.8054428E0,1.1617565E0,0E0,0E0,0E0,0E0,0E0],"parents":[2147483647,0,0,1,1,2,2,3,3,4,4,6,6,10,10,11,11],"right_children":[2,4,6,8,10,-1,12,-1,-1,-1,14,16,-1,-1,-1,-1,-1],"split_conditions":[4.94009E-4,3.8409913E0,1.46E1,6.3728814E0,1.00649864E2,-4.986129E-4,7.861889E0,-0E0,1.5682725E-2,-0E0,1.74798E1,1.58272E1,9.764712E-4,-0E0,-3.89105E-2,1.0816752E-2,4.1901834E-2],"split_indices":[63,30,26,0,15,0,29,0,0,0,17,24,0,0,0,0,0],"split_type":[0,0,0,0,0,0,0,0,0,0,0,0,0,0,0,0,0],"sum_hessian":[3.4E1,1.7E1,1.7E1,3E0,1.4E1,2E0,1.5E1,1E0,2E0,3E0,1.1E1,1.2E1,3E0,1E0,1E1,6E0,6E0],"tree_param":{"num_deleted":"0","num_feature":"65","num_nodes":"17","size_leaf_vector":"1"}},{"base_weights":[4.6556916E-2,-7.89009E-1,9.298537E-1,1.38523495E-2,-1.1726025E0,-4.923804E-4,1.102706E0,-1.3413109E0,-0E0,1.2117339E0,-0E0,-3.800295E-2,-0E0,1.0613939E-2,3.8276527E-2],"categories":[],"categories_nodes":[],"categories_segments":[],"categories_sizes":[],"default_left":[0,0,0,0,0,0,0,0,0,0,0,0,0,0,0],"id":43,"left_children":[1,3,5,-1,7,-1,9,11,-1,13,-1,-1,-1,-1,-1],"loss_changes":[2.8178064E1,1.170688E1,4.2449474E0,0E0,3.1876602E0,0E0,1.3531609E0,2.5414944E0,0E0,5.1483536E-1,0E0,0E0,0E0,0E0,0E0],"parents":[2147483647,0,0,1,1,2,2,4,4,6,6,7,7,9,9],"right_children":[2,4,6,-1,8,-1,10,12,-1,14,-1,-1,-1,-1,-1],"split_conditions":[4.94009E-4,3.8409913E0,1.46E1,1.38523495E-2,8.060733E0,-4.923804E-4,7.9229364E0,4.5307007E1,-0E0,1.58272E1,-0E0,-3.800295E-2,-0E0,1.0613939E-2,3.8276527E-2],"split_indices":[63,30,26,0,30,0,29,2,0,24,0,0,0,0,0],"split_type":[0,0,0,0,0,0,0,0,0,0,0,0,0,0,0],"sum_hessian":[3.4E1,1.7E1,1.7E1,3E0,1.4E1,2E0,1.5E1,1.2E1,2E0,1.3E1,2E0,1E1,2E0,6E0,7E0],"tree_param":{"num_deleted":"0","num_feature":"65","num_nodes":"15","size_leaf_vector":"1"}},{"base_weights":[4.6774648E-2,-7.7119464E-1,9.1245186E-1,5.4578257E-1,-1.1488507E0,-4.8622556E-4,1.0831989E0,-0E0,1.5313538E-2,-1.3141658E0,-0E0,1.2328781E0,7.704416E-4,-0E0,-3.5837557E-2,1.0414927E-2,4.039849E-2],"categories":[],"categories_nodes":[],"categories_segments":[],"categories_sizes":[],"default_left":[0,0,0,0,0,0,0,0,0,0,0,0,0,0,0,0,0],"id":44,"left_children":[1,3,5,7,9,-1,11,-1,-1,13,-1,15,-1,-1,-1,-1,-1],"loss_changes":[2.7040117E1,1.1307036E1,4.1291513E0,1.14353895E-2,3.0607224E0,0E0,1.3381481E0,0E0,0E0,2.5356312E0,0E0,9.986744E-1,0E0,0E0,0E0,0E0,0E0],"parents":[2147483647,0,0,1,1,2,2,3,3,4,4,6,6,9,9,11,11],"right_children":[2,4,6,8,10,-1,12,-1,-1,14,-1,16,-1,-1,-1,-1,-1],"split_conditions":[4.94009E-4,3.8409913E0,1.46E1,6.3728814E0,8.060733E0,-4.8622556E-4,7.861889E0,-0E0,1.5313538E-2,1.74798E1,-0E0,1.58272E1,7.704416E-4,-0E0,-3.5837557E-2,1.0414927E-2,4.039849E-2],"split_indices":[63,30,26,0,30,0,29,0,0,17,0,24,0,0,0,0,0],"split_type":[0,0,0,0,0,0,0,0,0,0,0,0,0,0,0,0,0],"sum_hessian":[3.4E1,1.7E1,1.7E1,3E0,1.4E1,2E0,1.5E1,1E0,2E0,1.2E1,2E0,1.2E1,3E0,1E0,1.1E1,6E0,6E0],"tree_param":{"num_deleted":"0","num_feature":"65","num_nodes":"17","size_leaf_vector":"1"}},{"base_weights":[4.836819E-2,-7.5205845E-1,8.96335E-1,5.396572E-1,-1.1242123E0,-4.8014754E-4,1.0651288E0,-0E0,1.5122118E-2,-0E0,-1.337397E0,1.2111008E0,7.588849E-4,-0E0,-3.6715355E-2,1.0219648E-2,3.964102E-2],"categories":[],"categories_nodes":[],"categories_segments":[],"categories_sizes":[],"default_left":[0,0,0,0,0,0,0,0,0,0,0,0,0,0,0,0,0],"id":45,"left_children":[1,3,5,7,9,-1,11,-1,-1,-1,13,15,-1,-1,-1,-1,-1],"loss_changes":[2.5926939E1,1.0931555E1,4.0230503E0,7.3928833E-3,3.030548E0,0E0,1.2528343E0,0E0,0E0,0E0,2.6297302E0,9.161835E-1,0E0,0E0,0E0,0E0,0E0],"parents":[2147483647,0,0,1,1,2,2,3,3,4,4,6,6,10,10,11,11],"right_children":[2,4,6,8,10,-1,12,-1,-1,-1,14,16,-1,-1,-1,-1,-1],"split_conditions":[4.94009E-4,3.8409913E0,1.46E1,6.3728814E0,1.00649864E2,-4.8014754E-4,7.861889E0,-0E0,1.5122118E-2,-0E0,1.74798E1,1.58272E1,7.588849E-4,-0E0,-3.6715355E-2,1.0219648E-2,3.964102E-2],"split_indices":[63,30,26,0,15,0,29,0,0,0,17,24,0,0,0,0,0],"split_type":[0,0,0,0,0,0,0,0,0,0,0,0,0,0,0,0,0],"sum_hessian":[3.4E1,1.7E1,1.7E1,3E0,1.4E1,2E0,1.5E1,1E0,2E0,3E0,1.1E1,1.2E1,3E0,1E0,1E1,6E0,6E0],"tree_param":{"num_deleted":"0","num_feature":"65","num_nodes":"17","size_leaf_vector":"1"}},{"base_weights":[4.9380086E-2,-7.343264E-1,8.805203E-1,5.336083E-1,-1.1012652E0,-4.7414593E-4,1.047397E0,-0E0,1.4933092E-2,-1.262405E0,-0E0,1.1897321E0,7.4750156E-4,-3.5850853E-2,-0E0,1.002803E-2,3.889775E-2],"categories":[],"categories_nodes":[],"categories_segments":[],"categories_sizes":[],"default_left":[0,0,0,0,0,0,0,0,0,0,0,0,0,0,0,0,0],"id":46,"left_children":[1,3,5,7,9,-1,11,-1,-1,13,-1,15,-1,-1,-1,-1,-1],"loss_changes":[2.4888693E1,1.058278E1,3.920123E0,3.4930706E-3,2.9067688E0,0E0,1.1712551E0,0E0,0E0,2.3661137E0,0E0,8.3755875E-1,0E0,0E0,0E0,0E0,0E0],"parents":[2147483647,0,0,1,1,2,2,3,3,4,4,6,6,9,9,11,11],"right_children":[2,4,6,8,10,-1,12,-1,-1,14,-1,16,-1,-1,-1,-1,-1],"split_conditions":[4.94009E-4,3.8409913E0,1.46E1,6.3728814E0,8.060733E0,-4.7414593E-4,7.861889E0,-0E0,1.4933092E-2,4.5307007E1,-0E0,1.58272E1,7.4750156E-4,-3.5850853E-2,-0E0,1.002803E-2,3.889775E-2],"split_indices":[63,30,26,0,30,0,29,0,0,2,0,24,0,0,0,0,0],"split_type":[0,0,0,0,0,0,0,0,0,0,0,0,0,0,0,0,0],"sum_hessian":[3.4E1,1.7E1,1.7E1,3E0,1.4E1,2E0,1.5E1,1E0,2E0,1.2E1,2E0,1.2E1,3E0,1E1,2E0,6E0,6E0],"tree_param":{"num_deleted":"0","num_feature":"65","num_nodes":"17","size_leaf_vector":"1"}},{"base_weights":[5.0318774E-2,-7.170295E-1,8.650019E-1,1.3190876E-2,-1.0788585E0,-4.6821908E-4,1.0299971E0,-1.2367973E0,-0E0,1.1296343E0,-0E0,-0E0,-3.3823505E-2,3.5976063E-2,9.353538E-3],"categories":[],"categories_nodes":[],"categories_segments":[],"categories_sizes":[],"default_left":[0,0,0,0,0,0,0,0,0,0,0,0,0,0,0],"id":47,"left_children":[1,3,5,-1,7,-1,9,11,-1,13,-1,-1,-1,-1,-1],"loss_changes":[2.3893682E1,1.02464695E1,3.8202667E0,0E0,2.7923775E0,0E0,1.1059036E0,2.3804626E0,0E0,6.163368E-1,0E0,0E0,0E0,0E0,0E0],"parents":[2147483647,0,0,1,1,2,2,4,4,6,6,7,7,9,9],"right_children":[2,4,6,-1,8,-1,10,12,-1,14,-1,-1,-1,-1,-1],"split_conditions":[4.94009E-4,3.8409913E0,1.46E1,1.3190876E-2,8.060733E0,-4.6821908E-4,7.9229364E0,1.74798E1,-0E0,9.359243E0,-0E0,-0E0,-3.3823505E-2,3.5976063E-2,9.353538E-3],"split_indices":[63,30,26,0,30,0,29,17,0,34,0,0,0,0,0],"split_type":[0,0,0,0,0,0,0,0,0,0,0,0,0,0,0],"sum_hessian":[3.4E1,1.7E1,1.7E1,3E0,1.4E1,2E0,1.5E1,1.2E1,2E0,1.3E1,2E0,1E0,1.1E1,7E0,6E0],"tree_param":{"num_deleted":"0","num_feature":"65","num_nodes":"15","size_leaf_vector":"1"}},{"base_weights":[5.1026214E-2,-6.995303E-1,8.488431E-1,5.1972055E-1,-1.0556049E0,-4.6236647E-4,1.0118822E0,-0E0,1.45815415E-2,-0E0,-1.2581607E0,1.4371032E0,1.0693574E-2,-0E0,-3.4644064E-2,4.6802957E-2,5.6811715E-3],"categories":[],"categories_nodes":[],"categories_segments":[],"categories_sizes":[],"default_left":[0,0,0,0,0,0,0,0,0,0,0,0,0,0,0,0,0],"id":48,"left_children":[1,3,5,7,9,-1,11,-1,-1,-1,13,15,-1,-1,-1,-1,-1],"loss_changes":[2.2893934E1,9.8818655E0,3.7176046E0,1.0229588E-2,2.7497635E0,0E0,1.1283321E0,0E0,0E0,0E0,2.4654598E0,1.2602139E0,0E0,0E0,0E0,0E0,0E0],"parents":[2147483647,0,0,1,1,2,2,3,3,4,4,6,6,10,10,11,11],"right_children":[2,4,6,8,10,-1,12,-1,-1,-1,14,16,-1,-1,-1,-1,-1],"split_conditions":[4.94009E-4,3.8409913E0,1.46E1,6.3728814E0,1.00649864E2,-4.6236647E-4,5.835014E0,-0E0,1.45815415E-2,-0E0,1.74798E1,4.8239665E0,1.0693574E-2,-0E0,-3.4644064E-2,4.6802957E-2,5.6811715E-3],"split_indices":[63,30,26,0,15,0,62,0,0,0,17,30,0,0,0,0,0],"split_type":[0,0,0,0,0,0,0,0,0,0,0,0,0,0,0,0,0],"sum_hessian":[3.4E1,1.7E1,1.7E1,3E0,1.4E1,2E0,1.5E1,1E0,2E0,3E0,1.1E1,6E0,9E0,1E0,1E1,3E0,3E0],"tree_param":{"num_deleted":"0","num_feature":"65","num_nodes":"17","size_leaf_vector":"1"}},{"base_weights":[5.281811E-2,-6.8283147E-1,8.3553946E-1,5.138879E-1,-1.0339524E0,-4.5658657E-4,9.9695903E-1,-0E0,1.4399272E-2,-1.1879506E0,-0E0,1.4174216E0,1.0474842E-2,-0E0,-3.25084E-2,4.610091E-2,5.595953E-3],"categories":[],"categories_nodes":[],"categories_segments":[],"categories_sizes":[],"default_left":[0,0,0,0,0,0,0,0,0,0,0,0,0,0,0,0,0],"id":49,"left_children":[1,3,5,7,9,-1,11,-1,-1,13,-1,15,-1,-1,-1,-1,-1],"loss_changes":[2.2022882E1,9.566405E0,3.6337013E0,6.5660477E-3,2.652254E0,0E0,1.1070213E0,0E0,0E0,2.224184E0,0E0,1.1801968E0,0E0,0E0,0E0,0E0,0E0],"parents":[2147483647,0,0,1,1,2,2,3,3,4,4,6,6,9,9,11,11],"right_children":[2,4,6,8,10,-1,12,-1,-1,14,-1,16,-1,-1,-1,-1,-1],"split_conditions":[4.94009E-4,3.8409913E0,1.46E1,6.3728814E0,8.060733E0,-4.5658657E-4,5.835014E0,-0E0,1.4399272E-2,1.74798E1,-0E0,4.8239665E0,1.0474842E-2,-0E0,-3.25084E-2,4.610091E-2,5.595953E-3],"split_indices":[63,30,26,0,30,0,62,0,0,17,0,30,0,0,0,0,0],"split_type":[0,0,0,0,0,0,0,0,0,0,0,0,0,0,0,0,0],"sum_hessian":[3.4E1,1.7E1,1.7E1,3E0,1.4E1,2E0,1.5E1,1E0,2E0,1.2E1,2E0,6E0,9E0,1E0,1.1E1,3E0,3E0],"tree_param":{"num_deleted":"0","num_feature":"65","num_nodes":"17","size_leaf_vector":"1"}},{"base_weights":[5.504987E-2,-6.655265E-1,8.224631E-1,5.0812817E-1,-1.0116028E0,-4.5087934E-4,9.8229057E-1,-0E0,1.4219281E-2,-0E0,-1.2090056E0,1.3980353E0,1.0260585E-2,-0E0,-3.3312775E-2,4.54094E-2,5.512014E-3],"categories":[],"categories_nodes":[],"categories_segments":[],"categories_sizes":[],"default_left":[0,0,0,0,0,0,0,0,0,0,0,0,0,0,0,0,0],"id":50,"left_children":[1,3,5,7,9,-1,11,-1,-1,-1,13,15,-1,-1,-1,-1,-1],"loss_changes":[2.1158953E1,9.248829E0,3.5520468E0,3.0316114E-3,2.6285877E0,0E0,1.0857315E0,0E0,0E0,0E0,2.3049965E0,1.1031446E0,0E0,0E0,0E0,0E0,0E0],"parents":[2147483647,0,0,1,1,2,2,3,3,4,4,6,6,10,10,11,11],"right_children":[2,4,6,8,10,-1,12,-1,-1,-1,14,16,-1,-1,-1,-1,-1],"split_conditions":[4.94009E-4,3.8409913E0,1.46E1,6.3728814E0,1.00649864E2,-4.5087934E-4,5.835014E0,-0E0,1.4219281E-2,-0E0,1.74798E1,4.8239665E0,1.0260585E-2,-0E0,-3.3312775E-2,4.54094E-2,5.512014E-3],"split_indices":[63,30,26,0,15,0,62,0,0,0,17,30,0,0,0,0,0],"split_type":[0,0,0,0,0,0,0,0,0,0,0,0,0,0,0,0,0],"sum_hessian":[3.4E1,1.7E1,1.7E1,3E0,1.4E1,2E0,1.5E1,1E0,2E0,3E0,1.1E1,6E0,9E0,1E0,1E1,3E0,3E0],"tree_param":{"num_deleted":"0","num_feature":"65","num_nodes":"17","size_leaf_vector":"1"}},{"base_weights":[5.672991E-2,-6.4949024E-1,8.0961E-1,1.2561011E-2,-9.9078226E-1,-4.4524352E-4,9.678723E-1,-1.1409929E0,-0E0,1.3789397E0,1.0050709E-2,-0E0,-3.26485E-2,4.4728257E-2,5.4293345E-3],"categories":[],"categories_nodes":[],"categories_segments":[],"categories_sizes":[],"default_left":[0,0,0,0,0,0,0,0,0,0,0,0,0,0,0],"id":51,"left_children":[1,3,5,-1,7,-1,9,11,-1,13,-1,-1,-1,-1,-1],"loss_changes":[2.0352957E1,8.953711E0,3.4725752E0,0E0,2.5197144E0,0E0,1.0644855E0,2.239647E0,0E0,1.0289564E0,0E0,0E0,0E0,0E0,0E0],"parents":[2147483647,0,0,1,1,2,2,4,4,6,6,7,7,9,9],"right_children":[2,4,6,-1,8,-1,10,12,-1,14,-1,-1,-1,-1,-1],"split_conditions":[4.94009E-4,3.8409913E0,1.46E1,1.2561011E-2,8.060733E0,-4.4524352E-4,5.835014E0,1.5966666E1,-0E0,4.8239665E0,1.0050709E-2,-0E0,-3.26485E-2,4.4728257E-2,5.4293345E-3],"split_indices":[63,30,26,0,30,0,62,49,0,30,0,0,0,0,0],"split_type":[0,0,0,0,0,0,0,0,0,0,0,0,0,0,0],"sum_hessian":[3.4E1,1.7E1,1.7E1,3E0,1.4E1,2E0,1.5E1,1.2E1,2E0,6E0,9E0,2E0,1E1,3E0,3E0],"tree_param":{"num_deleted":"0","num_feature":"65","num_nodes":"15","size_leaf_vector":"1"}},{"base_weights":[5.8084447E-2,-6.342901E-1,7.9697645E-1,4.9490383E-1,-9.7037697E-1,-4.3967794E-4,9.5370007E-1,-0E0,1.3884527E-2,-1.1189212E0,-0E0,1.3601307E0,9.845126E-3,-3.866188E-2,-7.165925E-3,4.4057332E-2,5.347895E-3],"categories":[],"categories_nodes":[],"categories_segments":[],"categories_sizes":[],"default_left":[0,0,0,0,0,0,0,0,0,0,0,0,0,0,0,0,0],"id":52,"left_children":[1,3,5,7,9,-1,11,-1,-1,13,-1,15,-1,-1,-1,-1,-1],"loss_changes":[1.9590958E1,8.646597E0,3.3952236E0,9.143472E-3,2.4616814E0,0E0,1.0433044E0,0E0,0E0,2.2621822E0,0E0,9.575443E-1,0E0,0E0,0E0,0E0,0E0],"parents":[2147483647,0,0,1,1,2,2,3,3,4,4,6,6,9,9,11,11],"right_children":[2,4,6,8,10,-1,12,-1,-1,14,-1,16,-1,-1,-1,-1,-1],"split_conditions":[4.94009E-4,3.8409913E0,1.46E1,6.3728814E0,2.74E11,-4.3967794E-4,5.835014E0,-0E0,1.3884527E-2,5.269527E0,-0E0,4.8239665E0,9.845126E-3,-3.866188E-2,-7.165925E-3,4.4057332E-2,5.347895E-3],"split_indices":[63,30,26,0,4,0,62,0,0,36,0,30,0,0,0,0,0],"split_type":[0,0,0,0,0,0,0,0,0,0,0,0,0,0,0,0,0],"sum_hessian":[3.4E1,1.7E1,1.7E1,3E0,1.4E1,2E0,1.5E1,1E0,2E0,1.2E1,2E0,6E0,9E0,6E0,6E0,3E0,3E0],"tree_param":{"num_deleted":"0","num_feature":"65","num_nodes":"17","size_leaf_vector":"1"}},{"base_weights":[5.8397092E-2,-6.212797E-1,7.845584E-1,4.8935002E-1,-9.531915E-1,-4.3418186E-4,9.397693E-1,-0E0,1.371097E-2,-1.0992807E0,-0E0,1.0708678E0,-0E0,-3.7936967E-2,-7.0315646E-3,8.526945E-3,3.519852E-2],"categories":[],"categories_nodes":[],"categories_segments":[],"categories_sizes":[],"default_left":[0,0,0,0,0,0,0,0,0,0,0,0,0,0,0,0,0],"id":53,"left_children":[1,3,5,7,9,-1,11,-1,-1,13,-1,15,-1,-1,-1,-1,-1],"loss_changes":[1.8906116E1,8.400722E0,3.31993E0,5.8231354E-3,2.3806677E0,0E0,1.0407801E0,0E0,0E0,2.1369495E0,0E0,7.3444176E-1,0E0,0E0,0E0,0E0,0E0],"parents":[2147483647,0,0,1,1,2,2,3,3,4,4,6,6,9,9,11,11],"right_children":[2,4,6,8,10,-1,12,-1,-1,14,-1,16,-1,-1,-1,-1,-1],"split_conditions":[4.94009E-4,3.8409913E0,1.46E1,6.3728814E0,2.74E11,-4.3418186E-4,7.861889E0,-0E0,1.371097E-2,5.269527E0,-0E0,1.58272E1,-0E0,-3.7936967E-2,-7.0315646E-3,8.526945E-3,3.519852E-2],"split_indices":[63,30,26,0,4,0,29,0,0,36,0,24,0,0,0,0,0],"split_type":[0,0,0,0,0,0,0,0,0,0,0,0,0,0,0,0,0],"sum_hessian":[3.4E1,1.7E1,1.7E1,3E0,1.4E1,2E0,1.5E1,1E0,2E0,1.2E1,2E0,1.2E1,3E0,6E0,6E0,6E0,6E0],"tree_param":{"num_deleted":"0","num_feature":"65","num_nodes":"17","size_leaf_vector":"1"}},{"base_weights":[5.7866704E-2,-6.0852236E-1,7.7079606E-1,4.8386562E-1,-9.363283E-1,-4.2875475E-4,9.2433685E-1,-0E0,1.35395825E-2,-1.0800084E0,-0E0,1.0167292E0,-0E0,-0E0,-2.9812355E-2,3.2417607E-2,8.064378E-3],"categories":[],"categories_nodes":[],"categories_segments":[],"categories_sizes":[],"default_left":[0,0,0,0,0,0,0,0,0,0,0,0,0,0,0,0,0],"id":54,"left_children":[1,3,5,7,9,-1,11,-1,-1,13,-1,15,-1,-1,-1,-1,-1],"loss_changes":[1.8203547E1,8.162311E0,3.2375479E0,2.620101E-3,2.3024845E0,0E0,9.812994E-1,0E0,0E0,2.1566963E0,0E0,4.593382E-1,0E0,0E0,0E0,0E0,0E0],"parents":[2147483647,0,0,1,1,2,2,3,3,4,4,6,6,9,9,11,11],"right_children":[2,4,6,8,10,-1,12,-1,-1,14,-1,16,-1,-1,-1,-1,-1],"split_conditions":[4.94009E-4,3.8409913E0,1.46E1,6.3728814E0,2.74E11,-4.2875475E-4,7.9229364E0,-0E0,1.35395825E-2,1.74798E1,-0E0,9.359243E0,-0E0,-0E0,-2.9812355E-2,3.2417607E-2,8.064378E-3],"split_indices":[63,30,26,0,4,0,29,0,0,17,0,34,0,0,0,0,0],"split_type":[0,0,0,0,0,0,0,0,0,0,0,0,0,0,0,0,0],"sum_hessian":[3.4E1,1.7E1,1.7E1,3E0,1.4E1,2E0,1.5E1,1E0,2E0,1.2E1,2E0,1.3E1,2E0,1E0,1.1E1,7E0,6E0],"tree_param":{"num_deleted":"0","num_feature":"65","num_nodes":"17","size_leaf_vector":"1"}},{"base_weights":[5.8600165E-2,-5.926878E-1,7.5635123E-1,1.1961246E-2,-9.158323E-1,-4.2339545E-4,9.0814215E-1,-4.6500757E-1,-4.4645067E-2,1.300314E0,9.172513E-3,-2.06763E-2,-0E0,4.2382233E-2,4.630326E-3],"categories":[],"categories_nodes":[],"categories_segments":[],"categories_sizes":[],"default_left":[0,0,0,0,0,0,0,0,0,0,0,0,0,0,0],"id":55,"left_children":[1,3,5,-1,7,-1,9,11,-1,13,-1,-1,-1,-1,-1],"loss_changes":[1.7419952E1,7.890255E0,3.1521473E0,0E0,2.3636332E0,0E0,9.870291E-1,2.4448717E0,0E0,1.0150166E0,0E0,0E0,0E0,0E0,0E0],"parents":[2147483647,0,0,1,1,2,2,4,4,6,6,7,7,9,9],"right_children":[2,4,6,-1,8,-1,10,12,-1,14,-1,-1,-1,-1,-1],"split_conditions":[4.94009E-4,3.8409913E0,1.46E1,1.1961246E-2,1.95E1,-4.2339545E-4,5.835014E0,6.7358217E0,-4.4645067E-2,4.8239665E0,9.172513E-3,-2.06763E-2,-0E0,4.2382233E-2,4.630326E-3],"split_indices":[63,30,26,0,7,0,62,30,0,30,0,0,0,0,0],"split_type":[0,0,0,0,0,0,0,0,0,0,0,0,0,0,0],"sum_hessian":[3.4E1,1.7E1,1.7E1,3E0,1.4E1,2E0,1.5E1,1.2E1,2E0,6E0,9E0,6E0,6E0,3E0,3E0],"tree_param":{"num_deleted":"0","num_feature":"65","num_nodes":"15","size_leaf_vector":"1"}},{"base_weights":[5.7342406E-2,-5.8334756E-1,7.446279E-1,4.7127306E-1,-9.0249807E-1,-4.1810275E-4,8.949898E-1,-0E0,1.3220823E-2,-4.5614627E-1,-4.4087004E-2,1.2826842E0,8.984893E-3,-2.0288618E-2,-0E0,4.1746497E-2,4.5608706E-3],"categories":[],"categories_nodes":[],"categories_segments":[],"categories_sizes":[],"default_left":[0,0,0,0,0,0,0,0,0,0,0,0,0,0,0,0,0],"id":56,"left_children":[1,3,5,7,9,-1,11,-1,-1,13,-1,15,-1,-1,-1,-1,-1],"loss_changes":[1.6882162E1,7.6769423E0,3.08329E0,8.165479E-3,2.3203793E0,0E0,9.659338E-1,0E0,0E0,2.355867E0,0E0,9.463415E-1,0E0,0E0,0E0,0E0,0E0],"parents":[2147483647,0,0,1,1,2,2,3,3,4,4,6,6,9,9,11,11],"right_children":[2,4,6,8,10,-1,12,-1,-1,14,-1,16,-1,-1,-1,-1,-1],"split_conditions":[4.94009E-4,3.8409913E0,1.46E1,6.3728814E0,1.95E1,-4.1810275E-4,5.835014E0,-0E0,1.3220823E-2,6.7358217E0,-4.4087004E-2,4.8239665E0,8.984893E-3,-2.0288618E-2,-0E0,4.1746497E-2,4.5608706E-3],"split_indices":[63,30,26,0,7,0,62,0,0,30,0,30,0,0,0,0,0],"split_type":[0,0,0,0,0,0,0,0,0,0,0,0,0,0,0,0,0],"sum_hessian":[3.4E1,1.7E1,1.7E1,3E0,1.4E1,2E0,1.5E1,1E0,2E0,1.2E1,2E0,6E0,9E0,6E0,6E0,3E0,3E0],"tree_param":{"num_deleted":"0","num_feature":"65","num_nodes":"17","size_leaf_vector":"1"}},{"base_weights":[5.6356695E-2,-5.736915E-1,7.3310417E-1,-1.0196418E0,1.6940057E-1,-4.1287672E-4,8.820612E-1,-0E0,-1.2904395E0,1.0963711E-2,-1.7255367E-3,1.2653189E0,8.801111E-3,-0E0,-3.6907505E-2,4.11203E-2,4.492457E-3],"categories":[],"categories_nodes":[],"categories_segments":[],"categories_sizes":[],"default_left":[0,0,0,0,0,0,0,0,0,0,0,0,0,0,0,0,0],"id":57,"left_children":[1,3,5,7,9,-1,11,-1,13,-1,-1,15,-1,-1,-1,-1,-1],"loss_changes":[1.6350372E1,7.4919567E0,3.016241E0,3.1366386E0,9.434317E-1,0E0,9.4500065E-1,0E0,2.9628181E0,0E0,0E0,8.802328E-1,0E0,0E0,0E0,0E0,0E0],"parents":[2147483647,0,0,1,1,2,2,3,3,4,4,6,6,8,8,11,11],"right_children":[2,4,6,8,10,-1,12,-1,14,-1,-1,16,-1,-1,-1,-1,-1],"split_conditions":[4.94009E-4,6.14E0,1.46E1,1.00649864E2,9.192E7,-4.1287672E-4,5.835014E0,-0E0,1.74798E1,1.0963711E-2,-1.7255367E-3,4.8239665E0,8.801111E-3,-0E0,-3.6907505E-2,4.11203E-2,4.492457E-3],"split_indices":[63,3,26,15,60,0,62,0,17,0,0,30,0,0,0,0,0],"split_type":[0,0,0,0,0,0,0,0,0,0,0,0,0,0,0,0,0],"sum_hessian":[3.4E1,1.7E1,1.7E1,1.1E1,6E0,2E0,1.5E1,3E0,8E0,4E0,2E0,6E0,9E0,1E0,7E0,3E0,3E0],"tree_param":{"num_deleted":"0","num_feature":"65","num_nodes":"17","size_leaf_vector":"1"}},{"base_weights":[5.643239E-2,-5.622206E-1,7.2177666E-1,4.594065E-1,-8.7370145E-1,-4.0771533E-4,8.693524E-1,-0E0,1.2918516E-2,-4.3480653E-1,-4.3074574E-2,1.248214E0,8.621088E-3,-1.9551415E-2,-0E0,4.0503494E-2,4.4250693E-3],"categories":[],"categories_nodes":[],"categories_segments":[],"categories_sizes":[],"default_left":[0,0,0,0,0,0,0,0,0,0,0,0,0,0,0,0,0],"id":58,"left_children":[1,3,5,7,9,-1,11,-1,-1,13,-1,15,-1,-1,-1,-1,-1],"loss_changes":[1.5789371E1,7.2631927E0,2.9509468E0,1.2811899E-2,2.307807E0,0E0,9.24242E-1,0E0,0E0,2.2461061E0,0E0,8.1660557E-1,0E0,0E0,0E0,0E0,0E0],"parents":[2147483647,0,0,1,1,2,2,3,3,4,4,6,6,9,9,11,11],"right_children":[2,4,6,8,10,-1,12,-1,-1,14,-1,16,-1,-1,-1,-1,-1],"split_conditions":[4.94009E-4,3.8409913E0,1.46E1,6.3728814E0,1.95E1,-4.0771533E-4,5.835014E0,-0E0,1.2918516E-2,6.7358217E0,-4.3074574E-2,4.8239665E0,8.621088E-3,-1.9551415E-2,-0E0,4.0503494E-2,4.4250693E-3],"split_indices":[63,30,26,0,7,0,62,0,0,30,0,30,0,0,0,0,0],"split_type":[0,0,0,0,0,0,0,0,0,0,0,0,0,0,0,0,0],"sum_hessian":[3.4E1,1.7E1,1.7E1,3E0,1.4E1,2E0,1.5E1,1E0,2E0,1.2E1,2E0,6E0,9E0,6E0,6E0,3E0,3E0],"tree_param":{"num_deleted":"0","num_feature":"65","num_nodes":"17","size_leaf_vector":"1"}},{"base_weights":[5.5489633E-2,-5.528721E-1,7.106419E-1,4.5423907E-1,-8.6098534E-1,-4.0261904E-4,8.5685974E-1,-0E0,1.2757033E-2,-4.264273E-1,-4.2536143E-2,9.7839206E-1,-0E0,-1.9184824E-2,-0E0,7.3750243E-3,3.230463E-2],"categories":[],"categories_nodes":[],"categories_segments":[],"categories_sizes":[],"default_left":[0,0,0,0,0,0,0,0,0,0,0,0,0,0,0,0,0],"id":59,"left_children":[1,3,5,7,9,-1,11,-1,-1,13,-1,15,-1,-1,-1,-1,-1],"loss_changes":[1.5292063E1,7.0847144E0,2.8873568E0,9.882569E-3,2.264701E0,0E0,9.199686E-1,0E0,0E0,2.165372E0,0E0,6.526289E-1,0E0,0E0,0E0,0E0,0E0],"parents":[2147483647,0,0,1,1,2,2,3,3,4,4,6,6,9,9,11,11],"right_children":[2,4,6,8,10,-1,12,-1,-1,14,-1,16,-1,-1,-1,-1,-1],"split_conditions":[4.94009E-4,3.8409913E0,1.46E1,6.3728814E0,1.95E1,-4.0261904E-4,7.861889E0,-0E0,1.2757033E-2,6.7358217E0,-4.2536143E-2,1.58272E1,-0E0,-1.9184824E-2,-0E0,7.3750243E-3,3.230463E-2],"split_indices":[63,30,26,0,7,0,29,0,0,30,0,24,0,0,0,0,0],"split_type":[0,0,0,0,0,0,0,0,0,0,0,0,0,0,0,0,0],"sum_hessian":[3.4E1,1.7E1,1.7E1,3E0,1.4E1,2E0,1.5E1,1E0,2E0,1.2E1,2E0,1.2E1,3E0,6E0,6E0,6E0,6E0],"tree_param":{"num_deleted":"0","num_feature":"65","num_nodes":"17","size_leaf_vector":"1"}},{"base_weights":[5.3750627E-2,-5.4367906E-1,6.981539E-1,-9.746788E-1,1.6761526E-1,-3.9758664E-4,8.428552E-1,-0E0,-1.2358612E0,1.0567019E-2,-1.2197644E-3,9.2912734E-1,-0E0,-0E0,-3.5391442E-2,2.9638795E-2,7.084202E-3],"categories":[],"categories_nodes":[],"categories_segments":[],"categories_sizes":[],"default_left":[0,0,0,0,0,0,0,0,0,0,0,0,0,0,0,0,0],"id":60,"left_children":[1,3,5,7,9,-1,11,-1,13,-1,-1,15,-1,-1,-1,-1,-1],"loss_changes":[1.4773103E1,6.958592E0,2.8169355E0,2.923545E0,8.567171E-1,0E0,8.722811E-1,0E0,2.7632504E0,0E0,0E0,3.4301186E-1,0E0,0E0,0E0,0E0,0E0],"parents":[2147483647,0,0,1,1,2,2,3,3,4,4,6,6,8,8,11,11],"right_children":[2,4,6,8,10,-1,12,-1,14,-1,-1,16,-1,-1,-1,-1,-1],"split_conditions":[4.94009E-4,6.14E0,1.46E1,1.00649864E2,9.192E7,-3.9758664E-4,7.9229364E0,-0E0,1.74798E1,1.0567019E-2,-1.2197644E-3,9.359243E0,-0E0,-0E0,-3.5391442E-2,2.9638795E-2,7.084202E-3],"split_indices":[63,3,26,15,60,0,29,0,17,0,0,34,0,0,0,0,0],"split_type":[0,0,0,0,0,0,0,0,0,0,0,0,0,0,0,0,0],"sum_hessian":[3.4E1,1.7E1,1.7E1,1.1E1,6E0,2E0,1.5E1,3E0,8E0,4E0,2E0,1.3E1,2E0,1E0,7E0,7E0,6E0],"tree_param":{"num_deleted":"0","num_feature":"65","num_nodes":"17","size_leaf_vector":"1"}},{"base_weights":[5.260422E-2,8.7438595E-1,-3.8948548E-1,3.7391238E-2,2.2675063E-1,-8.8365376E-1,1.6862512E-1,-0E0,1.0101018E-2,-1.2141297E0,-6.342644E-2,7.7158E-3,-3.9261655E-4,-0E0,-3.534211E-2,-1.0426375E-2,-0E0],"categories":[],"categories_nodes":[],"categories_segments":[],"categories_sizes":[],"default_left":[0,0,0,0,0,0,0,0,0,0,0,0,0,0,0,0,0],"id":61,"left_children":[1,3,5,-1,7,9,11,-1,-1,13,15,-1,-1,-1,-1,-1,-1],"loss_changes":[1.4244867E1,3.2322521E0,7.6322536E0,0E0,7.918326E-1,2.3633442E0,6.123105E-1,0E0,0E0,2.7210264E0,4.9364412E-1,0E0,0E0,0E0,0E0,0E0,0E0],"parents":[2147483647,0,0,1,1,2,2,4,4,5,5,6,6,9,9,10,10],"right_children":[2,4,6,-1,8,10,12,-1,-1,14,16,-1,-1,-1,-1,-1,-1],"split_conditions":[5.254299E0,2.4796373E1,4.94009E-4,3.7391238E-2,-8.1120855E-1,7.2888927E0,8.681674E0,-0E0,1.0101018E-2,1.74798E1,7.0742803E0,7.7158E-3,-3.9261655E-4,-0E0,-3.534211E-2,-1.0426375E-2,-0E0],"split_indices":[30,17,63,0,63,30,1,0,0,17,0,0,0,0,0,0,0],"split_type":[0,0,0,0,0,0,0,0,0,0,0,0,0,0,0,0,0],"sum_hessian":[3.4E1,1.2E1,2.2E1,4E0,8E0,1.2E1,1E1,2E0,6E0,7E0,5E0,8E0,2E0,1E0,6E0,1E0,4E0],"tree_param":{"num_deleted":"0","num_feature":"65","num_nodes":"17","size_leaf_vector":"1"}},{"base_weights":[5.1253326E-2,-5.254945E-1,6.7523766E-1,-9.412267E-1,1.5644403E-1,-3.8770886E-4,8.1714994E-1,-0E0,-1.1923735E0,4.014888E-1,-9.836287E-4,1.1801594E0,7.84153E-3,-0E0,-3.4200594E-2,-0E0,1.0997655E-2,3.8542375E-2,3.6640023E-3],"categories":[],"categories_nodes":[],"categories_segments":[],"categories_sizes":[],"default_left":[0,0,0,0,0,0,0,0,0,0,0,0,0,0,0,0,0,0,0],"id":62,"left_children":[1,3,5,7,9,-1,11,-1,13,15,-1,17,-1,-1,-1,-1,-1,-1,-1],"loss_changes":[1.3815148E1,6.4658537E0,2.6894693E0,2.7007456E0,7.775538E-1,0E0,8.7294865E-1,0E0,2.6258545E0,4.2766333E-4,0E0,8.493061E-1,0E0,0E0,0E0,0E0,0E0,0E0,0E0],"parents":[2147483647,0,0,1,1,2,2,3,3,4,4,6,6,8,8,9,9,11,11],"right_children":[2,4,6,8,10,-1,12,-1,14,16,-1,18,-1,-1,-1,-1,-1,-1,-1],"split_conditions":[4.94009E-4,6.14E0,1.46E1,1.00649864E2,9.192E7,-3.8770886E-4,5.835014E0,-0E0,1.42E1,6.3728814E0,-9.836287E-4,4.8239665E0,7.84153E-3,-0E0,-3.4200594E-2,-0E0,1.0997655E-2,3.8542375E-2,3.6640023E-3],"split_indices":[63,3,26,15,60,0,62,0,48,0,0,30,0,0,0,0,0,0,0],"split_type":[0,0,0,0,0,0,0,0,0,0,0,0,0,0,0,0,0,0,0],"sum_hessian":[3.4E1,1.7E1,1.7E1,1.1E1,6E0,2E0,1.5E1,3E0,8E0,4E0,2E0,6E0,9E0,1E0,7E0,1E0,3E0,3E0,3E0],"tree_param":{"num_deleted":"0","num_feature":"65","num_nodes":"19","size_leaf_vector":"1"}},{"base_weights":[5.1585592E-2,8.473734E-1,-3.752561E-1,3.635522E-2,2.1379754E-1,-8.513773E-1,1.59428E-1,-0E0,9.69316E-3,-1.1676586E0,-5.8622256E-2,7.435985E-3,-3.8286234E-4,-0E0,-3.4141984E-2,-1.0054483E-2,-0E0],"categories":[],"categories_nodes":[],"categories_segments":[],"categories_sizes":[],"default_left":[0,0,0,0,0,0,0,0,0,0,0,0,0,0,0,0,0],"id":63,"left_children":[1,3,5,-1,7,9,11,-1,-1,13,15,-1,-1,-1,-1,-1,-1],"loss_changes":[1.3336396E1,3.0928488E0,7.073202E0,0E0,7.4556005E-1,2.147088E0,5.8063257E-1,0E0,0E0,2.6497993E0,4.6118864E-1,0E0,0E0,0E0,0E0,0E0,0E0],"parents":[2147483647,0,0,1,1,2,2,4,4,5,5,6,6,9,9,10,10],"right_children":[2,4,6,-1,8,10,12,-1,-1,14,16,-1,-1,-1,-1,-1,-1],"split_conditions":[5.254299E0,2.4796373E1,4.94009E-4,3.635522E-2,-8.1120855E-1,7.2888927E0,8.681674E0,-0E0,9.69316E-3,1.74798E1,7.0742803E0,7.435985E-3,-3.8286234E-4,-0E0,-3.4141984E-2,-1.0054483E-2,-0E0],"split_indices":[30,17,63,0,63,30,1,0,0,17,0,0,0,0,0,0,0],"split_type":[0,0,0,0,0,0,0,0,0,0,0,0,0,0,0,0,0],"sum_hessian":[3.4E1,1.2E1,2.2E1,4E0,8E0,1.2E1,1E1,2E0,6E0,7E0,5E0,8E0,2E0,1E0,6E0,1E0,4E0],"tree_param":{"num_deleted":"0","num_feature":"65","num_nodes":"17","size_leaf_vector":"1"}},{"base_weights":[5.0269056E-2,-5.0755334E-1,6.5543157E-1,-9.0890604E-1,1.4653313E-1,-3.7807674E-4,7.9492307E-1,-0E0,-1.1503567E0,3.8225603E-1,-7.579446E-4,1.1512431E0,7.508516E-3,-0E0,-3.3111315E-2,-0E0,1.0469138E-2,3.7552223E-2,3.4975016E-3],"categories":[],"categories_nodes":[],"categories_segments":[],"categories_sizes":[],"default_left":[0,0,0,0,0,0,0,0,0,0,0,0,0,0,0,0,0,0,0],"id":64,"left_children":[1,3,5,7,9,-1,11,-1,13,15,-1,17,-1,-1,-1,-1,-1,-1,-1],"loss_changes":[1.2965845E1,6.0166106E0,2.5810404E0,2.4937706E0,7.08619E-1,0E0,8.5279083E-1,0E0,2.554369E0,1.0454655E-4,0E0,7.7633E-1,0E0,0E0,0E0,0E0,0E0,0E0,0E0],"parents":[2147483647,0,0,1,1,2,2,3,3,4,4,6,6,8,8,9,9,11,11],"right_children":[2,4,6,8,10,-1,12,-1,14,16,-1,18,-1,-1,-1,-1,-1,-1,-1],"split_conditions":[4.94009E-4,6.14E0,1.46E1,1.00649864E2,9.192E7,-3.7807674E-4,5.835014E0,-0E0,1.74798E1,6.3728814E0,-7.579446E-4,4.8239665E0,7.508516E-3,-0E0,-3.3111315E-2,-0E0,1.0469138E-2,3.7552223E-2,3.4975016E-3],"split_indices":[63,3,26,15,60,0,62,0,17,0,0,30,0,0,0,0,0,0,0],"split_type":[0,0,0,0,0,0,0,0,0,0,0,0,0,0,0,0,0,0,0],"sum_hessian":[3.4E1,1.7E1,1.7E1,1.1E1,6E0,2E0,1.5E1,3E0,8E0,4E0,2E0,6E0,9E0,1E0,7E0,1E0,3E0,3E0,3E0],"tree_param":{"num_deleted":"0","num_feature":"65","num_nodes":"19","size_leaf_vector":"1"}},{"base_weights":[5.0600115E-2,-4.9692768E-1,6.454331E-1,-1.18605115E-1,-4.015837E-2,-3.7335083E-4,7.8370386E-1,4.0075195E-1,-3.5857475E-1,1.1358495E0,2.941973E-1,-0E0,1.1275318E-2,-1.6975204E-2,-0E0,3.698894E-2,3.4450383E-3,-0E0,7.7180313E-3],"categories":[],"categories_nodes":[],"categories_segments":[],"categories_sizes":[],"default_left":[0,0,0,0,0,0,0,0,0,0,0,0,0,0,0,0,0,0,0],"id":65,"left_children":[1,3,5,7,-1,-1,9,11,13,15,17,-1,-1,-1,-1,-1,-1,-1,-1],"loss_changes":[1.2514727E1,5.868582E0,2.5270567E0,2.3639307E0,0E0,0E0,8.3204365E-1,1.063931E-2,1.888354E0,7.191677E-1,1.0156035E-3,0E0,0E0,0E0,0E0,0E0,0E0,0E0,0E0],"parents":[2147483647,0,0,1,1,2,2,3,3,6,6,7,7,8,8,9,9,10,10],"right_children":[2,4,6,8,-1,-1,10,12,14,16,18,-1,-1,-1,-1,-1,-1,-1,-1],"split_conditions":[4.94009E-4,1.95E1,1.46E1,3.8409913E0,-4.015837E-2,-3.7335083E-4,5.835014E0,6.3728814E0,6.7358217E0,4.8239665E0,3.88E0,-0E0,1.1275318E-2,-1.6975204E-2,-0E0,3.698894E-2,3.4450383E-3,-0E0,7.7180313E-3],"split_indices":[63,7,26,30,0,0,62,0,30,30,3,0,0,0,0,0,0,0,0],"split_type":[0,0,0,0,0,0,0,0,0,0,0,0,0,0,0,0,0,0,0],"sum_hessian":[3.4E1,1.7E1,1.7E1,1.5E1,2E0,2E0,1.5E1,3E0,1.2E1,6E0,9E0,1E0,2E0,6E0,6E0,3E0,3E0,1E0,8E0],"tree_param":{"num_deleted":"0","num_feature":"65","num_nodes":"19","size_leaf_vector":"1"}},{"base_weights":[4.9970035E-2,8.118813E-1,-3.569757E-1,3.494692E-2,1.9790773E-1,-8.095779E-1,1.4722282E-1,-0E0,9.088139E-3,-3.3242235E-1,-3.965639E-2,7.0641576E-3,-3.686839E-4,-1.833786E-2,-0E0],"categories":[],"categories_nodes":[],"categories_segments":[],"categories_sizes":[],"default_left":[0,0,0,0,0,0,0,0,0,0,0,0,0,0,0],"id":66,"left_children":[1,3,5,-1,7,9,11,-1,-1,13,-1,-1,-1,-1,-1],"loss_changes":[1.2196584E1,2.8879147E0,6.3775644E0,0E0,6.6553205E-1,2.2150536E0,5.3921247E-1,0E0,0E0,1.9022048E0,0E0,0E0,0E0,0E0,0E0],"parents":[2147483647,0,0,1,1,2,2,4,4,5,5,6,6,9,9],"right_children":[2,4,6,-1,8,10,12,-1,-1,14,-1,-1,-1,-1,-1],"split_conditions":[5.254299E0,2.4796373E1,4.94009E-4,3.494692E-2,-8.1120855E-1,1.94E1,8.681674E0,-0E0,9.088139E-3,6.7358217E0,-3.965639E-2,7.0641576E-3,-3.686839E-4,-1.833786E-2,-0E0],"split_indices":[30,17,63,0,63,7,1,0,0,30,0,0,0,0,0],"split_type":[0,0,0,0,0,0,0,0,0,0,0,0,0,0,0],"sum_hessian":[3.4E1,1.2E1,2.2E1,4E0,8E0,1.2E1,1E1,2E0,6E0,1E1,2E0,8E0,2E0,4E0,6E0],"tree_param":{"num_deleted":"0","num_feature":"65","num_nodes":"15","size_leaf_vector":"1"}},{"base_weights":[4.7263708E-2,-4.8464873E-1,6.268326E-1,-1.14271566E-1,-3.916068E-2,7.8657883E-1,-0E0,3.8044542E-1,-3.4606028E-1,1.2710505E0,3.299132E-1,-0E0,-3.640755E-4,-0E0,1.0697541E-2,-1.6427694E-2,-0E0,3.6039196E-2,-0E0,-0E0,9.125451E-3],"categories":[],"categories_nodes":[],"categories_segments":[],"categories_sizes":[],"default_left":[0,0,0,0,0,0,0,0,0,0,0,0,0,0,0,0,0,0,0,0,0],"id":67,"left_children":[1,3,5,7,-1,9,11,13,15,17,19,-1,-1,-1,-1,-1,-1,-1,-1,-1,-1],"loss_changes":[1.1847848E1,5.57396E0,2.4338365E0,2.1783159E0,0E0,1.1002283E0,8.4832625E-4,8.705556E-3,1.7777168E0,6.971731E-1,2.626884E-2,0E0,0E0,0E0,0E0,0E0,0E0,0E0,0E0,0E0,0E0],"parents":[2147483647,0,0,1,1,2,2,3,3,5,5,6,6,7,7,8,8,9,9,10,10],"right_children":[2,4,6,8,-1,10,12,14,16,18,20,-1,-1,-1,-1,-1,-1,-1,-1,-1,-1],"split_conditions":[4.94009E-4,1.95E1,8.681674E0,3.8409913E0,-3.916068E-2,4.8239665E0,5.556424E0,6.3728814E0,6.7358217E0,1.0247935E1,4.28E0,-0E0,-3.640755E-4,-0E0,1.0697541E-2,-1.6427694E-2,-0E0,3.6039196E-2,-0E0,-0E0,9.125451E-3],"split_indices":[63,7,1,30,0,30,0,0,30,0,3,0,0,0,0,0,0,0,0,0,0],"split_type":[0,0,0,0,0,0,0,0,0,0,0,0,0,0,0,0,0,0,0,0,0],"sum_hessian":[3.4E1,1.7E1,1.7E1,1.5E1,2E0,1.4E1,3E0,3E0,1.2E1,4E0,1E1,1E0,2E0,1E0,2E0,6E0,6E0,3E0,1E0,2E0,8E0],"tree_param":{"num_deleted":"0","num_feature":"65","num_nodes":"21","size_leaf_vector":"1"}},{"base_weights":[4.657205E-2,7.897938E-1,-3.4918833E-1,3.3975E-2,1.9031139E-1,-7.883852E-1,1.3807279E-1,-0E0,8.748081E-3,-3.2083377E-1,-3.8671173E-2,6.7859935E-3,-3.595246E-4,-1.7758433E-2,-0E0],"categories":[],"categories_nodes":[],"categories_segments":[],"categories_sizes":[],"default_left":[0,0,0,0,0,0,0,0,0,0,0,0,0,0,0],"id":68,"left_children":[1,3,5,-1,7,9,11,-1,-1,13,-1,-1,-1,-1,-1],"loss_changes":[1.1581137E1,2.7106295E0,6.0041084E0,0E0,6.1738586E-1,2.104436E0,5.0885344E-1,0E0,0E0,1.7922626E0,0E0,0E0,0E0,0E0,0E0],"parents":[2147483647,0,0,1,1,2,2,4,4,5,5,6,6,9,9],"right_children":[2,4,6,-1,8,10,12,-1,-1,14,-1,-1,-1,-1,-1],"split_conditions":[5.254299E0,2.4796373E1,4.94009E-4,3.3975E-2,-8.1120855E-1,1.94E1,8.681674E0,-0E0,8.748081E-3,6.7358217E0,-3.8671173E-2,6.7859935E-3,-3.595246E-4,-1.7758433E-2,-0E0],"split_indices":[30,17,63,0,63,7,1,0,0,30,0,0,0,0,0],"split_type":[0,0,0,0,0,0,0,0,0,0,0,0,0,0,0],"sum_hessian":[3.4E1,1.2E1,2.2E1,4E0,8E0,1.2E1,1E1,2E0,6E0,1E1,2E0,8E0,2E0,4E0,6E0],"tree_param":{"num_deleted":"0","num_feature":"65","num_nodes":"15","size_leaf_vector":"1"}},{"base_weights":[4.3972567E-2,7.763375E-1,-3.4523803E-1,3.340875E-2,1.8506256E-1,-7.777869E-1,1.3360868E-1,-0E0,8.584055E-3,-3.1491432E-1,-3.8187783E-2,2.660109E-1,-3.550305E-4,-1.746246E-2,-0E0,-0E0,7.013893E-3],"categories":[],"categories_nodes":[],"categories_segments":[],"categories_sizes":[],"default_left":[0,0,0,0,0,0,0,0,0,0,0,0,0,0,0,0,0],"id":69,"left_children":[1,3,5,-1,7,9,11,-1,-1,13,-1,15,-1,-1,-1,-1,-1],"loss_changes":[1.1228733E1,2.619669E0,5.8230066E0,0E0,6.006992E-1,2.0538797E0,4.942094E-1,0E0,0E0,1.7373475E0,0E0,7.855296E-4,0E0,0E0,0E0,0E0,0E0],"parents":[2147483647,0,0,1,1,2,2,4,4,5,5,6,6,9,9,11,11],"right_children":[2,4,6,-1,8,10,12,-1,-1,14,-1,16,-1,-1,-1,-1,-1],"split_conditions":[5.254299E0,2.4796373E1,4.94009E-4,3.340875E-2,-8.1120855E-1,1.94E1,8.681674E0,-0E0,8.584055E-3,6.7358217E0,-3.8187783E-2,3.88E0,-3.550305E-4,-1.746246E-2,-0E0,-0E0,7.013893E-3],"split_indices":[30,17,63,0,63,7,1,0,0,30,0,3,0,0,0,0,0],"split_type":[0,0,0,0,0,0,0,0,0,0,0,0,0,0,0,0,0],"sum_hessian":[3.4E1,1.2E1,2.2E1,4E0,8E0,1.2E1,1E1,2E0,6E0,1E1,2E0,8E0,2E0,4E0,6E0,1E0,7E0],"tree_param":{"num_deleted":"0","num_feature":"65","num_nodes":"17","size_leaf_vector":"1"}},{"base_weights":[4.1547555E-2,-4.689648E-1,6.003181E-1,-1.1039185E-1,-3.7710436E-2,7.560412E-1,-0E0,1.9753695E-1,-4.051779E-1,1.2247924E0,3.1232545E-1,-0E0,-3.505924E-4,-0E0,9.293001E-3,-0E0,-1.5679413E-2,3.4738116E-2,-0E0,-0E0,8.649282E-3],"categories":[],"categories_nodes":[],"categories_segments":[],"categories_sizes":[],"default_left":[0,0,0,0,0,0,0,0,0,0,0,0,0,0,0,0,0,0,0,0,0],"id":70,"left_children":[1,3,5,7,-1,9,11,13,15,17,19,-1,-1,-1,-1,-1,-1,-1,-1,-1,-1],"loss_changes":[1.0963741E1,5.12983E0,2.2983198E0,1.9108591E0,0E0,1.025692E0,7.866561E-4,5.16888E-1,1.3409426E0,6.531944E-1,2.6394963E-2,0E0,0E0,0E0,0E0,0E0,0E0,0E0,0E0,0E0,0E0],"parents":[2147483647,0,0,1,1,2,2,3,3,5,5,6,6,7,7,8,8,9,9,10,10],"right_children":[2,4,6,8,-1,10,12,14,16,18,20,-1,-1,-1,-1,-1,-1,-1,-1,-1,-1],"split_conditions":[4.94009E-4,1.95E1,8.681674E0,9.192E7,-3.7710436E-2,4.8239665E0,5.556424E0,8.318907E0,-5.0989066E9,1.0247935E1,4.28E0,-0E0,-3.505924E-4,-0E0,9.293001E-3,-0E0,-1.5679413E-2,3.4738116E-2,-0E0,-0E0,8.649282E-3],"split_indices":[63,7,1,60,0,30,0,0,12,0,3,0,0,0,0,0,0,0,0,0,0],"split_type":[0,0,0,0,0,0,0,0,0,0,0,0,0,0,0,0,0,0,0,0,0],"sum_hessian":[3.4E1,1.7E1,1.7E1,1.5E1,2E0,1.4E1,3E0,6E0,9E0,4E0,1E1,1E0,2E0,2E0,4E0,3E0,6E0,3E0,1E0,2E0,8E0],"tree_param":{"num_deleted":"0","num_feature":"65","num_nodes":"21","size_leaf_vector":"1"}},{"base_weights":[4.0425822E-2,7.553462E-1,-3.383132E-1,3.2485012E-2,1.7784435E-1,-7.588028E-1,1.2531021E-1,-0E0,8.26049E-3,-1.0558826E0,-1.7185107E-2,6.3977907E-3,-3.4620994E-4,-0E0,-3.0969242E-2,-7.74856E-3,-0E0],"categories":[],"categories_nodes":[],"categories_segments":[],"categories_sizes":[],"default_left":[0,0,0,0,0,0,0,0,0,0,0,0,0,0,0,0,0],"id":71,"left_children":[1,3,5,-1,7,9,11,-1,-1,13,15,-1,-1,-1,-1,-1,-1],"loss_changes":[1.06757765E1,2.4592652E0,5.5024357E0,0E0,5.571307E-1,1.9751167E0,4.672429E-1,0E0,0E0,2.2424097E0,2.861256E-1,0E0,0E0,0E0,0E0,0E0,0E0],"parents":[2147483647,0,0,1,1,2,2,4,4,5,5,6,6,9,9,10,10],"right_children":[2,4,6,-1,8,10,12,-1,-1,14,16,-1,-1,-1,-1,-1,-1],"split_conditions":[5.254299E0,2.4796373E1,4.94009E-4,3.2485012E-2,-8.1120855E-1,7.2888927E0,8.681674E0,-0E0,8.26049E-3,1.74798E1,7.0742803E0,6.3977907E-3,-3.4620994E-4,-0E0,-3.0969242E-2,-7.74856E-3,-0E0],"split_indices":[30,17,63,0,63,30,1,0,0,17,0,0,0,0,0,0,0],"split_type":[0,0,0,0,0,0,0,0,0,0,0,0,0,0,0,0,0],"sum_hessian":[3.4E1,1.2E1,2.2E1,4E0,8E0,1.2E1,1E1,2E0,6E0,7E0,5E0,8E0,2E0,1E0,6E0,1E0,4E0],"tree_param":{"num_deleted":"0","num_feature":"65","num_nodes":"17","size_leaf_vector":"1"}},{"base_weights":[3.9413884E-2,-4.5566702E-1,5.8297753E-1,-1.0224365E-1,-3.6997072E-2,7.358785E-1,-0E0,1.876078E-1,-3.8536403E-1,1.1938415E0,3.0091733E-1,-0E0,-3.4188246E-4,-0E0,8.86741E-3,-0E0,-1.4998311E-2,3.385089E-2,-0E0,-0E0,8.339028E-3],"categories":[],"categories_nodes":[],"categories_segments":[],"categories_sizes":[],"default_left":[0,0,0,0,0,0,0,0,0,0,0,0,0,0,0,0,0,0,0,0,0],"id":72,"left_children":[1,3,5,7,-1,9,11,13,15,17,19,-1,-1,-1,-1,-1,-1,-1,-1,-1,-1],"loss_changes":[1.0346485E1,4.9929113E0,2.2068815E0,1.7374191E0,0E0,9.738846E-1,7.480552E-4,4.732838E-1,1.2457917E0,6.1551666E-1,2.6015282E-2,0E0,0E0,0E0,0E0,0E0,0E0,0E0,0E0,0E0,0E0],"parents":[2147483647,0,0,1,1,2,2,3,3,5,5,6,6,7,7,8,8,9,9,10,10],"right_children":[2,4,6,8,-1,10,12,14,16,18,20,-1,-1,-1,-1,-1,-1,-1,-1,-1,-1],"split_conditions":[4.94009E-4,1.95E1,8.681674E0,9.192E7,-3.6997072E-2,4.8239665E0,5.556424E0,8.318907E0,-5.0989066E9,1.0247935E1,4.28E0,-0E0,-3.4188246E-4,-0E0,8.86741E-3,-0E0,-1.4998311E-2,3.385089E-2,-0E0,-0E0,8.339028E-3],"split_indices":[63,7,1,60,0,30,0,0,12,0,3,0,0,0,0,0,0,0,0,0,0],"split_type":[0,0,0,0,0,0,0,0,0,0,0,0,0,0,0,0,0,0,0,0,0],"sum_hessian":[3.4E1,1.7E1,1.7E1,1.5E1,2E0,1.4E1,3E0,6E0,9E0,4E0,1E1,1E0,2E0,2E0,4E0,3E0,6E0,3E0,1E0,2E0,8E0],"tree_param":{"num_deleted":"0","num_feature":"65","num_nodes":"21","size_leaf_vector":"1"}},{"base_weights":[3.8328703E-2,7.349553E-1,-3.295642E-1,3.1587612E-2,1.7083481E-1,-7.366731E-1,1.1699022E-1,-0E0,7.947703E-3,-2.8899056E-1,-3.6534607E-2,6.1447504E-3,-3.3760892E-4,-1.6143974E-2,-0E0],"categories":[],"categories_nodes":[],"categories_segments":[],"categories_sizes":[],"default_left":[0,0,0,0,0,0,0,0,0,0,0,0,0,0,0],"id":73,"left_children":[1,3,5,-1,7,9,11,-1,-1,13,-1,-1,-1,-1,-1],"loss_changes":[1.0116045E1,2.3082752E0,5.155161E0,0E0,5.1667917E-1,1.9471407E0,4.406162E-1,0E0,0E0,1.4998407E0,0E0,0E0,0E0,0E0,0E0],"parents":[2147483647,0,0,1,1,2,2,4,4,5,5,6,6,9,9],"right_children":[2,4,6,-1,8,10,12,-1,-1,14,-1,-1,-1,-1,-1],"split_conditions":[5.254299E0,2.4796373E1,4.94009E-4,3.1587612E-2,-8.1120855E-1,1.94E1,8.681674E0,-0E0,7.947703E-3,6.7358217E0,-3.6534607E-2,6.1447504E-3,-3.3760892E-4,-1.6143974E-2,-0E0],"split_indices":[30,17,63,0,63,7,1,0,0,30,0,0,0,0,0],"split_type":[0,0,0,0,0,0,0,0,0,0,0,0,0,0,0],"sum_hessian":[3.4E1,1.2E1,2.2E1,4E0,8E0,1.2E1,1E1,2E0,6E0,1E1,2E0,8E0,2E0,4E0,6E0],"tree_param":{"num_deleted":"0","num_feature":"65","num_nodes":"15","size_leaf_vector":"1"}},{"base_weights":[3.5971094E-2,-4.454019E-1,5.661892E-1,-9.94217E-2,-3.6077924E-2,7.1635425E-1,-0E0,3.0961168E-1,-3.0273053E-1,1.1637377E0,2.8993687E-1,-0E0,-3.333888E-4,-0E0,8.693613E-3,-0E0,-1.2992573E-2,3.2987513E-2,-0E0,-0E0,8.040338E-3],"categories":[],"categories_nodes":[],"categories_segments":[],"categories_sizes":[],"default_left":[0,0,0,0,0,0,0,0,0,0,0,0,0,0,0,0,0,0,0,0,0],"id":74,"left_children":[1,3,5,7,-1,9,11,13,15,17,19,-1,-1,-1,-1,-1,-1,-1,-1,-1,-1],"loss_changes":[9.813528E0,4.72911E0,2.11978E0,1.5942982E0,0E0,9.2385674E-1,7.113478E-4,4.4080317E-3,1.4178705E0,5.7969666E-1,2.559185E-2,0E0,0E0,0E0,0E0,0E0,0E0,0E0,0E0,0E0,0E0],"parents":[2147483647,0,0,1,1,2,2,3,3,5,5,6,6,7,7,8,8,9,9,10,10],"right_children":[2,4,6,8,-1,10,12,14,16,18,20,-1,-1,-1,-1,-1,-1,-1,-1,-1,-1],"split_conditions":[4.94009E-4,1.95E1,8.681674E0,3.8409913E0,-3.6077924E-2,4.8239665E0,5.556424E0,6.3728814E0,-5.0458634E9,1.0247935E1,4.28E0,-0E0,-3.333888E-4,-0E0,8.693613E-3,-0E0,-1.2992573E-2,3.2987513E-2,-0E0,-0E0,8.040338E-3],"split_indices":[63,7,1,30,0,30,0,0,12,0,3,0,0,0,0,0,0,0,0,0,0],"split_type":[0,0,0,0,0,0,0,0,0,0,0,0,0,0,0,0,0,0,0,0,0],"sum_hessian":[3.4E1,1.7E1,1.7E1,1.5E1,2E0,1.4E1,3E0,3E0,1.2E1,4E0,1E1,1E0,2E0,1E0,2E0,4E0,8E0,3E0,1E0,2E0,8E0],"tree_param":{"num_deleted":"0","num_feature":"65","num_nodes":"21","size_leaf_vector":"1"}},{"base_weights":[3.5862494E-2,7.149209E-1,-3.2157677E-1,3.0713806E-2,1.6375789E-1,-7.1611905E-1,1.08985364E-1,-0E0,8.176536E-3,-1.0029838E0,-0E0,5.9012496E-3,-3.292216E-4,-0E0,-2.9453754E-2,-5.9277634E-3,-0E0],"categories":[],"categories_nodes":[],"categories_segments":[],"categories_sizes":[],"default_left":[0,0,0,0,0,0,0,0,0,0,0,0,0,0,0,0,0],"id":75,"left_children":[1,3,5,-1,7,9,11,-1,-1,13,15,-1,-1,-1,-1,-1,-1],"loss_changes":[9.5911455E0,2.1686444E0,4.840226E0,0E0,4.8061776E-1,1.8742185E0,4.1535586E-1,0E0,0E0,2.0505123E0,2.248856E-1,0E0,0E0,0E0,0E0,0E0,0E0],"parents":[2147483647,0,0,1,1,2,2,4,4,5,5,6,6,9,9,10,10],"right_children":[2,4,6,-1,8,10,12,-1,-1,14,16,-1,-1,-1,-1,-1,-1],"split_conditions":[5.254299E0,2.4796373E1,4.94009E-4,3.0713806E-2,3.97212E3,7.2888927E0,8.681674E0,-0E0,8.176536E-3,1.74798E1,3.32E0,5.9012496E-3,-3.292216E-4,-0E0,-2.9453754E-2,-5.9277634E-3,-0E0],"split_indices":[30,17,63,0,14,30,1,0,0,17,3,0,0,0,0,0,0],"split_type":[0,0,0,0,0,0,0,0,0,0,0,0,0,0,0,0,0],"sum_hessian":[3.4E1,1.2E1,2.2E1,4E0,8E0,1.2E1,1E1,3E0,5E0,7E0,5E0,8E0,2E0,1E0,6E0,2E0,3E0],"tree_param":{"num_deleted":"0","num_feature":"65","num_nodes":"17","size_leaf_vector":"1"}},{"base_weights":[3.52594E-2,7.032253E-1,-3.15659E-1,3.020191E-2,1.5966961E-1,-7.026492E-1,1.0510605E-1,-0E0,7.517587E-3,-2.6434654E-1,-3.5405815E-2,2.3132895E-1,-3.2510608E-4,-1.5167466E-2,-0E0,-0E0,6.101738E-3],"categories":[],"categories_nodes":[],"categories_segments":[],"categories_sizes":[],"default_left":[0,0,0,0,0,0,0,0,0,0,0,0,0,0,0,0,0],"id":76,"left_children":[1,3,5,-1,7,9,11,-1,-1,13,-1,15,-1,-1,-1,-1,-1],"loss_changes":[9.26998E0,2.088273E0,4.6532154E0,0E0,4.6843666E-1,1.9493852E0,4.0323997E-1,0E0,0E0,1.3699503E0,0E0,9.98497E-4,0E0,0E0,0E0,0E0,0E0],"parents":[2147483647,0,0,1,1,2,2,4,4,5,5,6,6,9,9,11,11],"right_children":[2,4,6,-1,8,10,12,-1,-1,14,-1,16,-1,-1,-1,-1,-1],"split_conditions":[5.254299E0,2.4796373E1,4.94009E-4,3.020191E-2,-8.1120855E-1,1.94E1,8.681674E0,-0E0,7.517587E-3,6.7358217E0,-3.5405815E-2,3.88E0,-3.2510608E-4,-1.5167466E-2,-0E0,-0E0,6.101738E-3],"split_indices":[30,17,63,0,63,7,1,0,0,30,0,3,0,0,0,0,0],"split_type":[0,0,0,0,0,0,0,0,0,0,0,0,0,0,0,0,0],"sum_hessian":[3.4E1,1.2E1,2.2E1,4E0,8E0,1.2E1,1E1,2E0,6E0,1E1,2E0,8E0,2E0,4E0,6E0,1E0,7E0],"tree_param":{"num_deleted":"0","num_feature":"65","num_nodes":"17","size_leaf_vector":"1"}},{"base_weights":[3.3134565E-2,-4.2701137E-1,5.4242426E-1,-8.935869E-2,-3.4963243E-2,6.889907E-1,-0E0,1.628716E-1,-3.4746096E-1,1.1217072E0,2.7446738E-1,-0E0,-3.2104235E-4,-0E0,7.930449E-3,-0E0,-1.3713918E-2,3.180507E-2,-0E0,-0E0,7.6210136E-3],"categories":[],"categories_nodes":[],"categories_segments":[],"categories_sizes":[],"default_left":[0,0,0,0,0,0,0,0,0,0,0,0,0,0,0,0,0,0,0,0,0],"id":77,"left_children":[1,3,5,7,-1,9,11,13,15,17,19,-1,-1,-1,-1,-1,-1,-1,-1,-1,-1],"loss_changes":[9.015169E0,4.494849E0,2.0050745E0,1.4044929E0,0E0,8.580184E-1,6.596364E-4,3.915461E-1,1.079295E0,5.4313755E-1,2.5289416E-2,0E0,0E0,0E0,0E0,0E0,0E0,0E0,0E0,0E0,0E0],"parents":[2147483647,0,0,1,1,2,2,3,3,5,5,6,6,7,7,8,8,9,9,10,10],"right_children":[2,4,6,8,-1,10,12,14,16,18,20,-1,-1,-1,-1,-1,-1,-1,-1,-1,-1],"split_conditions":[4.94009E-4,1.95E1,8.681674E0,9.192E7,-3.4963243E-2,4.8239665E0,5.556424E0,8.318907E0,-5.0989066E9,1.0247935E1,4.28E0,-0E0,-3.2104235E-4,-0E0,7.930449E-3,-0E0,-1.3713918E-2,3.180507E-2,-0E0,-0E0,7.6210136E-3],"split_indices":[63,7,1,60,0,30,0,0,12,0,3,0,0,0,0,0,0,0,0,0,0],"split_type":[0,0,0,0,0,0,0,0,0,0,0,0,0,0,0,0,0,0,0,0,0],"sum_hessian":[3.4E1,1.7E1,1.7E1,1.5E1,2E0,1.4E1,3E0,6E0,9E0,4E0,1E1,1E0,2E0,2E0,4E0,3E0,6E0,3E0,1E0,2E0,8E0],"tree_param":{"num_deleted":"0","num_feature":"65","num_nodes":"21","size_leaf_vector":"1"}},{"base_weights":[3.21553E-2,6.842965E-1,-3.0927333E-1,2.9367415E-2,1.5319714E-1,-6.854776E-1,9.784385E-2,-0E0,7.22961E-3,-2.5604117E-1,-3.4526203E-2,5.562127E-3,-3.1702901E-4,-1.468611E-2,-0E0],"categories":[],"categories_nodes":[],"categories_segments":[],"categories_sizes":[],"default_left":[0,0,0,0,0,0,0,0,0,0,0,0,0,0,0],"id":78,"left_children":[1,3,5,-1,7,9,11,-1,-1,13,-1,-1,-1,-1,-1],"loss_changes":[8.81404E0,1.9585032E0,4.3975945E0,0E0,4.3432721E-1,1.8375468E0,3.8075835E-1,0E0,0E0,1.2838607E0,0E0,0E0,0E0,0E0,0E0],"parents":[2147483647,0,0,1,1,2,2,4,4,5,5,6,6,9,9],"right_children":[2,4,6,-1,8,10,12,-1,-1,14,-1,-1,-1,-1,-1],"split_conditions":[5.254299E0,2.4796373E1,4.94009E-4,2.9367415E-2,-8.1120855E-1,1.94E1,8.681674E0,-0E0,7.22961E-3,6.7358217E0,-3.4526203E-2,5.562127E-3,-3.1702901E-4,-1.468611E-2,-0E0],"split_indices":[30,17,63,0,63,7,1,0,0,30,0,0,0,0,0],"split_type":[0,0,0,0,0,0,0,0,0,0,0,0,0,0,0],"sum_hessian":[3.4E1,1.2E1,2.2E1,4E0,8E0,1.2E1,1E1,2E0,6E0,1E1,2E0,8E0,2E0,4E0,6E0],"tree_param":{"num_deleted":"0","num_feature":"65","num_nodes":"15","size_leaf_vector":"1"}},{"base_weights":[3.0018806E-2,-4.1741562E-1,5.269249E-1,-8.680919E-2,-3.4094628E-2,6.709574E-1,-0E0,1.5066081E-1,-3.3464026E-1,1.0936056E0,2.6447368E-1,-0E0,-3.1306615E-4,-0E0,7.553546E-3,-0E0,-1.3273207E-2,3.099817E-2,-0E0,-0E0,7.349013E-3],"categories":[],"categories_nodes":[],"categories_segments":[],"categories_sizes":[],"default_left":[0,0,0,0,0,0,0,0,0,0,0,0,0,0,0,0,0,0,0,0,0],"id":79,"left_children":[1,3,5,7,-1,9,11,13,15,17,19,-1,-1,-1,-1,-1,-1,-1,-1,-1,-1],"loss_changes":[8.553388E0,4.257268E0,1.9275932E0,1.2853054E0,0E0,8.122549E-1,6.272666E-4,3.661487E-1,1.0232532E0,5.1125336E-1,2.477187E-2,0E0,0E0,0E0,0E0,0E0,0E0,0E0,0E0,0E0,0E0],"parents":[2147483647,0,0,1,1,2,2,3,3,5,5,6,6,7,7,8,8,9,9,10,10],"right_children":[2,4,6,8,-1,10,12,14,16,18,20,-1,-1,-1,-1,-1,-1,-1,-1,-1,-1],"split_conditions":[4.94009E-4,1.95E1,8.681674E0,9.192E7,-3.4094628E-2,4.8239665E0,5.556424E0,8.318907E0,-5.0989066E9,1.0247935E1,4.28E0,-0E0,-3.1306615E-4,-0E0,7.553546E-3,-0E0,-1.3273207E-2,3.099817E-2,-0E0,-0E0,7.349013E-3],"split_indices":[63,7,1,60,0,30,0,0,12,0,3,0,0,0,0,0,0,0,0,0,0],"split_type":[0,0,0,0,0,0,0,0,0,0,0,0,0,0,0,0,0,0,0,0,0],"sum_hessian":[3.4E1,1.7E1,1.7E1,1.5E1,2E0,1.4E1,3E0,6E0,9E0,4E0,1E1,1E0,2E0,2E0,4E0,3E0,6E0,3E0,1E0,2E0,8E0],"tree_param":{"num_deleted":"0","num_feature":"65","num_nodes":"21","size_leaf_vector":"1"}},{"base_weights":[2.908697E-2,6.659322E-1,-3.0316332E-1,2.8556693E-2,1.469444E-1,-6.687653E-1,9.056628E-2,-0E0,7.4359574E-3,-9.4436264E-1,-0E0,5.3406497E-3,-3.091529E-4,-0E0,-2.7756644E-2,-4.98498E-3,-0E0],"categories":[],"categories_nodes":[],"categories_segments":[],"categories_sizes":[],"default_left":[0,0,0,0,0,0,0,0,0,0,0,0,0,0,0,0,0],"id":80,"left_children":[1,3,5,-1,7,9,11,-1,-1,13,15,-1,-1,-1,-1,-1,-1],"loss_changes":[8.383853E0,1.8360605E0,4.1540937E0,0E0,4.0336025E-1,1.7649274E0,3.5854527E-1,0E0,0E0,1.8351345E0,1.5904018E-1,0E0,0E0,0E0,0E0,0E0,0E0],"parents":[2147483647,0,0,1,1,2,2,4,4,5,5,6,6,9,9,10,10],"right_children":[2,4,6,-1,8,10,12,-1,-1,14,16,-1,-1,-1,-1,-1,-1],"split_conditions":[5.254299E0,2.4796373E1,4.94009E-4,2.8556693E-2,3.97212E3,7.2888927E0,8.681674E0,-0E0,7.4359574E-3,1.74798E1,3.32E0,5.3406497E-3,-3.091529E-4,-0E0,-2.7756644E-2,-4.98498E-3,-0E0],"split_indices":[30,17,63,0,14,30,1,0,0,17,3,0,0,0,0,0,0],"split_type":[0,0,0,0,0,0,0,0,0,0,0,0,0,0,0,0,0],"sum_hessian":[3.4E1,1.2E1,2.2E1,4E0,8E0,1.2E1,1E1,3E0,5E0,7E0,5E0,8E0,2E0,1E0,6E0,2E0,3E0],"tree_param":{"num_deleted":"0","num_feature":"65","num_nodes":"17","size_leaf_vector":"1"}}]},"name":"gbtree"},"learner_model_param":{"base_score":"-1.2562576E-1","boost_from_average":"1","num_class":"0","num_feature":"65","num_target":"1"},"objective":{"name":"reg:squarederror","reg_loss_param":{"scale_pos_weight":"1"}}},"version":[3,0,0]}